{"initParams":[784,[128,64],10],"learningRate":0.00002,"accuracy":96.0583,"layersBiases":[[0,0,0,0,0,0,0,0,0,0,0,0,0,0,0,0,0,0,0,0,0,0,0,0,0,0,0,0,0,0,0,0,0,0,0,0,0,0,0,0,0,0,0,0,0,0,0,0,0,0,0,0,0,0,0,0,0,0,0,0,0,0,0,0,0,0,0,0,0,0,0,0,0,0,0,0,0,0,0,0,0,0,0,0,0,0,0,0,0,0,0,0,0,0,0,0,0,0,0,0,0,0,0,0,0,0,0,0,0,0,0,0,0,0,0,0,0,0,0,0,0,0,0,0,0,0,0,0,0,0,0,0,0,0,0,0,0,0,0,0,0,0,0,0,0,0,0,0,0,0,0,0,0,0,0,0,0,0,0,0,0,0,0,0,0,0,0,0,0,0,0,0,0,0,0,0,0,0,0,0,0,0,0,0,0,0,0,0,0,0,0,0,0,0,0,0,0,0,0,0,0,0,0,0,0,0,0,0,0,0,0,0,0,0,0,0,0,0,0,0,0,0,0,0,0,0,0,0,0,0,0,0,0,0,0,0,0,0,0,0,0,0,0,0,0,0,0,0,0,0,0,0,0,0,0,0,0,0,0,0,0,0,0,0,0,0,0,0,0,0,0,0,0,0,0,0,0,0,0,0,0,0,0,0,0,0,0,0,0,0,0,0,0,0,0,0,0,0,0,0,0,0,0,0,0,0,0,0,0,0,0,0,0,0,0,0,0,0,0,0,0,0,0,0,0,0,0,0,0,0,0,0,0,0,0,0,0,0,0,0,0,0,0,0,0,0,0,0,0,0,0,0,0,0,0,0,0,0,0,0,0,0,0,0,0,0,0,0,0,0,0,0,0,0,0,0,0,0,0,0,0,0,0,0,0,0,0,0,0,0,0,0,0,0,0,0,0,0,0,0,0,0,0,0,0,0,0,0,0,0,0,0,0,0,0,0,0,0,0,0,0,0,0,0,0,0,0,0,0,0,0,0,0,0,0,0,0,0,0,0,0,0,0,0,0,0,0,0,0,0,0,0,0,0,0,0,0,0,0,0,0,0,0,0,0,0,0,0,0,0,0,0,0,0,0,0,0,0,0,0,0,0,0,0,0,0,0,0,0,0,0,0,0,0,0,0,0,0,0,0,0,0,0,0,0,0,0,0,0,0,0,0,0,0,0,0,0,0,0,0,0,0,0,0,0,0,0,0,0,0,0,0,0,0,0,0,0,0,0,0,0,0,0,0,0,0,0,0,0,0,0,0,0,0,0,0,0,0,0,0,0,0,0,0,0,0,0,0,0,0,0,0,0,0,0,0,0,0,0,0,0,0,0,0,0,0,0,0,0,0,0,0,0,0,0,0,0,0,0,0,0,0,0,0,0,0,0,0,0,0,0,0,0,0,0,0,0,0,0,0,0,0,0,0,0,0,0,0,0,0,0,0,0,0,0,0,0,0,0,0,0,0,0,0,0,0,0,0,0,0,0,0,0,0,0,0,0,0,0,0,0,0,0,0,0,0,0,0,0,0,0,0,0,0,0,0,0,0,0,0,0,0,0,0,0,0,0,0,0,0,0,0,0,0,0,0,0,0,0,0,0,0,0,0,0,0,0,0,0,0,0,0,0,0,0,0,0,0,0,0,0,0,0,0,0,0,0,0,0,0,0,0,0,0,0,0,0,0,0,0,0,0,0,0,0,0,0,0,0,0,0,0,0,0,0,0,0,0,0,0,0,0,0,0,0,0,0,0,0,0,0,0,0,0,0,0,0,0,0,0,0,0,0,0],[0.019856986753750916,-0.002788363335582042,0.009880135328805294,-0.0061172577890763954,-0.0009529407834506445,-0.028156267860796565,0.005195760774580887,-0.002110361573153726,-0.002787720624207292,0.0026538658875033495,0.0217038296469118,0.02857665413214495,0.0010210917902448839,-0.0027528809435122623,0.0008278858116861195,-0.01928075882417868,0.023139387921495756,0.019523292395566022,0.01805602307675362,0.0010606955294567798,0.02202239627556266,-0.009746959328762867,0.01299591885318137,-0.016102763473539602,-0.022201583991328697,0.0032993048928510633,-0.01265504920059209,-0.0035906444283384906,-0.025943787338773668,-0.0025171357470491476,0.02228712556793945,-0.0006084769415777166,0.0008496553005159721,0.013739805600179992,-0.006535196459053886,-0.0034807468059923053,-0.015651973391961373,0.03136636597082392,0.002521317331250827,-0.006671687123664102,-0.004957800853227448,0.02453221655635309,0.00132399946511171,-0.009227651891008324,-0.0007728133515226911,0.002591360834764019,0.01816894996677679,-0.007583039103010266,0.024626857759022132,-0.006580121421146206,-0.004804810915864344,-0.02244389006092359,-0.0059939918813793,-0.019289967666497963,0.0010879239056044436,-0.0017927404073154333,0.03122827809611279,-0.01979999111169176,-0.011392950113669692,0.023783537957805176,0.019999204176626244,0.0017692377370922279,0.0006361358886056494,-0.027246798471213498,-0.015060486595924225,-0.02293419772591932,-0.0015286032717677465,-0.011482257751084645,-0.00010913687414223578,-0.02557933657435533,0.026784893750144638,0.005195886428459186,0.023613111907421193,-0.021365897791530704,0.019810067595447938,0.019542733500033653,-0.017336862904907796,0.021846177059524664,-0.022953102896556533,0.002487511100462605,0.03318651268881707,0.01770295426322145,-0.0023939691051717946,-0.0023645755452251687,-0.0037047443776513037,-0.018572846112633913,-0.003808159227535177,0.005285111684707803,-0.020447478194722785,-0.0019256155939592619,-0.010648196695241804,0.005328982217185556,-0.019424944503705383,-0.043963340002460854,-0.0017915132318378601,0.015304999099811416,-0.023643812924459277,-0.0010002666600414174,0.011705921495013163,-0.007107620202433315,0.002564735441297985,-0.005459470886352739,0.010296716743449797,-0.0005425736684301697,-0.015586793170808882,-0.006250516911970843,0.0016705217179509033,-0.028975542648955223,0.012424057968270612,0.02203782194168409,-0.002337416276107761,0.0045803702884617825,0.02372574936499938,-0.023918365701906957,0.025186319812075027,-0.008050726266083998,-0.0030937060014757417,-0.02229180819701883,-0.024715904449660514,-0.02649843982615923,0.021542406031873938,-0.004700199296647039,0.009747818955932635,0.01768232319941727,0.021344291995715293,0.001699979565943017,-0.0272247320841538,-0.022349306707663504],[-0.051725993930727604,-0.0632282943741601,-0.003560992335893972,-0.054965279062594706,0.030429139131337855,0.0679838851113391,-0.006961470247984952,0.03604507209074439,-0.010613302828739972,-0.027628419017284262,-0.04073980167605429,0.024420073727954114,-0.045675912286736925,-0.07687463162720823,-0.028763358433237123,-0.02323682149334368,0.039417703351478865,-0.028679051484376276,-0.005996214623187587,0.016274547100874285,-0.006167709453125309,0.026175342011230136,0.008797835853605558,-0.015941980489513247,-0.02057153261570358,0.0013305184500828381,-0.009082062303277762,-0.043717211057813475,0.011647002286898639,0.02087292460653202,-0.0369216537664399,-0.04486661920152055,-0.039945657387117674,0.01864246583940598,-0.03479315868901987,0.015524059903542766,0.043261481220846075,0.018057747544125608,0.08657712210297655,0.006938151787546727,0.019706929490191483,0.014257805443042415,0.013329458775679339,0.03691114841162815,-0.033004783668120576,0.00177680666571643,0.0326161397609146,-0.06121528579164595,-0.024762869426364176,0.01451881423183057,0.017420785312507753,-0.019049742407818444,0.015293777967425842,0.03293060241730655,-0.019575997797545194,0.004552454492688712,0.004184720124723849,0.005031025687253585,-0.022607743074359938,-0.07579324803299618,-0.07189257558544433,0.0036427828035683206,-0.006792107181328773,0.0032048097791861473],[-0.047147262807089044,-0.04439936220857658,-0.02658628123905681,-0.02210473301717689,0.012775612616023524,-0.03826236623953346,-0.055503375522681274,-0.028304164682817143,0.03333480847193195,0.028602009250923932]],"layersWeights":[[[-0.7042468074436057,-0.753226090789807,0.7611033573293269,0.07449852624554198,0.49503632611439663,0.4270278219944572,-0.1841770693667013,-0.8751390415740574,0.6595658547995495,-0.6085887164282311,0.6698513513280187,-0.6025011937408924,0.9969663850511998,-0.36345515024893693,0.2973394476929694,-0.259912094282329,-0.0455373501185643,0.11924187450366208,0.08565175497773536,-0.6325444777131537,-0.47531654793812717,0.6785892797495152,0.6555712876046438,-0.07766426798895498,-0.26730228198173567,0.8438653422263571,0.3015828349773888,-0.868604814371218,0.052427814336252876,-0.5212112263079325,0.02878790378612006,-0.8981624358021199,0.3688910320116179,-0.911398968274522,0.08983282663171321,-0.9106067313346364,0.9418126274960303,0.6639061337589909,0.2994054650382285,0.6195105890662567,0.8581799313182024,0.9620658994540561,0.026548763365423333,-0.59093945090288,-0.7533489086928933,0.04756371476422938,0.7343629044299345,-0.18962735279847598,0.1527364643164275,-0.06920444679188531,-0.2649651218762812,0.20770518822180284,0.9831727085236537,0.89829053516433,0.5015348932428396,-0.7299454059962649,-0.3617358924175349,-0.24532363961587755,-0.6125206940799361,-0.9871553623630116,-0.8773168925835542,-0.0013626946467981682,-0.4491013969357476,0.2962848215691598,0.94463774784345,-0.8967568883309456,0.40866547969082934,-0.33880187771034986,-0.8651778831384029,-0.24429460861875185,-0.5836381272518203,0.3691942642336663,0.9398940524721207,0.14914197111120586,-0.9984079790975775,-0.536485038264749,0.350066326262934,0.3899467349511072,-0.017928510366955752,-0.5180835854760724,-0.9460582072047763,-0.3291336460167704,-0.1321134006734095,0.7295493852938089,0.4167327947250028,-0.6481990169787157,0.5837586698199573,-0.4735289468794899,-0.7770756284464793,-0.23184746715804883,-0.6739858767216371,-0.27049825477133993,0.9221965100740586,-0.8061311955307566,-0.3046167568823197,-0.9925131190990948,-0.29834604242607465,-0.8861390727968992,0.29446147655086286,-0.5932434506726767,-0.49696330561810065,0.10792135599875863,-0.033809969086522784,-0.38939482687981153,0.059093641190566704,-0.6212194023986073,0.10642986973341939,-0.5270322547914317,0.5941535207390847,-0.7576465760281179,-0.8769593567414362,-0.9264616725737365,0.5935935500770522,0.4658697780199095,0.8385132803200341,-0.3152706554941527,-0.694526050324237,0.4582602475586408,-0.8368273886622823,-0.9348257425103141,-0.787584297806347,0.7138833478361359,0.9756680100186936,0.09985534408103902,-0.20989082284797878,0.5063851263659807,-0.8076275015025973,0.8840647129398937],[0.5328853118450598,0.0024058407548781524,-0.8598968185632869,-0.19258285409509046,0.23138592686748627,0.023985499366823593,-0.9386124374996934,-0.32411412681780405,-0.2839810745852671,-0.9600629729929846,-0.45571753842146157,-0.8764278149221392,0.7884797291734569,-0.6143060080801233,-0.2129188319160371,0.6266409213006794,0.5188161049813536,0.08897342648617412,0.5703512430574516,-0.06659431279772798,-0.7534895819065492,-0.7742682806546708,-0.5961505911829126,0.5909218536356331,-0.5965703020850128,0.48634011135753275,0.9991675485182316,0.6559862069103648,0.16618459796331608,0.18431301521696541,-0.3386744647712989,-0.5047106777055395,-0.22137188127884633,0.9168910175329295,0.8534091671842949,-0.950351925352158,-0.6828113161044063,0.5864066833608645,0.08687458236899737,0.4973638055101728,0.6386558758396541,-0.8387409497993024,-0.013865058184553192,-0.20623420269244574,0.39699975536262766,0.4769977128774494,-0.5031451729361418,-0.09187842284290904,-0.9133517139605836,0.4462696967729505,-0.38323641104821826,0.5245652690420282,-0.9825218767725756,-0.7439310831289245,-0.6210284061078037,-0.38780513583118026,-0.8242627599940535,0.19032090948411406,0.9721349350158519,0.14341329635468947,-0.01522062698222637,-0.4020663193678513,-0.8721584949186871,-0.9153000507382139,-0.950231223676453,0.4696564747578966,-0.20762208179950692,0.3717602406565841,0.9437215795726157,0.7657238741998986,0.3215958363248772,0.12947150667446294,0.9197155945063527,0.7392641860487847,-0.12366190999901683,-0.09103039389209533,0.7342395424249242,0.8387642530666195,0.23225704870738229,0.7751687968801897,0.15663526445318343,0.2620515439156308,-0.012271810397550098,-0.8008237419637205,0.19552802860663698,-0.709469402871731,0.9137469015654771,0.5630724670740106,0.23383894659166948,-0.6376606266798412,0.9383564699201785,0.2606090224834863,0.7569782078616001,-0.5576576058464364,0.06442649687700541,0.7659824664383805,0.45069785743846325,-0.22290319875167341,0.48073444451174474,0.843562652382154,-0.17759031130850866,0.18040301433335726,-0.9543187659752923,-0.24128199757817947,-0.25693673281861473,-0.8675829927013177,-0.36080762907451636,0.6312371659379004,0.87851320340339,-0.9158382020150393,0.3196178249765933,-0.33419490690851994,0.8949582719856957,-0.454046277018338,0.779817898515728,0.0393367141676042,-0.4323691889221952,-0.4826499078472217,-0.9084181774802844,0.9810587652719205,0.565008698474887,-0.7860984368003927,-0.9948039468390832,-0.8532557403526364,-0.9595820686712861,0.9334132379115094,0.35256752321913964,0.18494577516179156],[-0.6751088772371663,-0.4337309689363269,0.29871720803893353,-0.1761890582673491,0.31451211037153737,0.2543853239499141,-0.17259707939935964,-0.05666525489980101,0.2848190564095101,0.42064843430265686,0.43989984125650583,0.26266710090010603,-0.6081387587137415,0.20673275902619226,0.18000465569108126,0.16619887224208796,-0.04231560896365183,0.965733547048218,-0.7921513062218635,-0.49511512959905923,-0.8501760278900874,-0.4187960383362377,-0.9804202655498013,0.6387208934349609,0.8264291831584725,0.06321685027279633,-0.10872219149939655,-0.7047789396759487,-0.30476258776240606,-0.6049687120681186,-0.7513603067538766,0.39256039213961325,-0.7222293481402735,0.3825762581931924,0.12567854243313237,-0.5582206022142469,0.7874630208307978,0.7422804862901371,0.5356903070131791,0.7801637577871636,-0.5460278714643656,0.36408721596538074,0.22085309845366874,-0.825462307279452,-0.8447872159961722,-0.025692826837807825,-0.8038557856801205,-0.7001489961515079,-0.887134744754722,0.4812418423047653,0.85465273126488,-0.8874692035775609,-0.29602605747079824,0.05099650005147183,-0.9686458477522844,0.849444492016993,0.9113371634128837,0.7774295766099772,-0.1809567213563441,0.17569616172779234,0.9739723224193098,-0.9139470142911867,0.7142033993862822,0.4814184736159497,0.36818228405972775,-0.9875545722602981,0.236801431487069,0.19455552776049156,-0.5695609583633048,-0.9686940498720449,0.5357279698795212,0.689084791232303,0.8651733269094328,0.8794969973289586,0.6686064710167843,-0.14199011695415864,0.6308589959226354,0.43850708501814184,0.7993813890967889,-0.8627471179841204,0.25596865173541206,0.1971609969000223,0.9409887209087007,-0.6686784521214428,-0.252652751559864,0.6462616096001197,-0.16730549231446723,-0.08202438272773716,-0.9844882200349052,-0.07918405381125249,0.8782762329006917,-0.877482524050905,-0.7484362423756714,0.4799419817979964,-0.6140497510964558,0.22959925366615597,-0.4642079094708076,-0.3953972863213808,0.39554756445436645,-0.953581815397536,0.328966406448715,-0.7683833368960302,0.701709134910947,0.28734335368721187,0.8196817841284707,-0.3428013099335212,0.5497730920721366,0.2712753275138722,0.002718184837974036,-0.9177238564875458,-0.5802233820634295,-0.06084793152322465,-0.715221544732572,0.3249699975024156,-0.21910001512239008,0.5075879195532456,0.28209305470162516,0.06345699446839026,-0.1626962952717368,-0.7281408887368839,-0.0797402298350458,0.02882691167144147,0.3744662642327863,0.0524310273176849,-0.8689667641986731,-0.11367990914331738,-0.773807885806697,-0.8152948672452709],[-0.11323071828801412,-0.7483489915115467,-0.8145546260812742,0.43718326138039565,0.7324823118127806,-0.5812622609759841,0.6624136535147627,-0.8480007777541272,0.12493545585603005,0.995540950349036,0.7237161809553565,-0.9718336757878769,0.7934074948652912,0.5603664235057018,0.3678459051369032,0.5851763806158257,-0.3771781527537037,0.04464364136606003,0.021382161134196664,-0.09187878368868763,-0.6455083229867769,0.5641750258669842,0.008274171873535519,-0.5205086577693732,-0.239237102504664,0.04463382953674788,0.9154298472953766,-0.5975357861260111,-0.47176229469884934,0.4879021182898957,-0.36908705794702623,0.5590145972089409,0.8057964894981988,-0.9526357290105159,0.6097546063551591,-0.07708698674788206,0.16051916465874339,-0.9450631387235604,-0.6237753297476862,0.8508696218827172,0.03772672273496047,-0.9635342540289304,-0.5653675274348413,-0.5721511786861102,-0.4674104998914954,0.962754854770778,-0.3188493472997611,0.717146508276957,0.9056600323252937,0.17116254364164618,-0.01903459841388777,-0.6903892011840904,-0.6238018478380467,0.2890681498909924,-0.2595692166313399,0.9015364727372495,-0.15442186445462047,0.5543578506152267,-0.2574086284594794,-0.8373676415889313,-0.5403438945859311,-0.004888220366804141,0.03613156181391863,-0.44533545035156985,0.7574202461550641,-0.9964233964333986,-0.9491849187489163,0.36915365765263664,-0.7240828177295491,-0.08359623573099828,-0.6466435239159836,0.03472324836042917,-0.6378229790697851,-0.3046486497221639,0.32509991412531614,0.3548060338641008,0.7434029242186693,0.7460998723311327,0.3103584415446754,-0.937490835576444,0.6242140237007829,0.7823801373710015,-0.003105800274711079,-0.22297049240005373,0.83752941326996,0.18042662679326638,-0.7060898899109231,0.1438372441916087,0.678243489148143,0.38613008506028734,-0.3218578831821799,-0.27118140933283685,-0.5405051248815393,0.5654372423645602,-0.26319940667771347,-0.7370761115727986,0.3509237347285592,-0.6186442993479031,0.9109772226146631,0.3040281260642166,0.15806574215759683,0.46924151364182043,-0.11480466146389157,-0.8923624152322334,-0.7644089733407258,-0.7456345079124729,-0.39345611348129106,0.15474271670467443,-0.6462566972086861,0.5175145833795178,-0.1240213817401119,-0.16061500327001887,-0.48365513116190284,0.08879938929275788,0.17943176603028776,0.15779102742146867,-0.7841160060780958,-0.7823170234436283,0.8261461050723389,0.8061237533594272,0.5333880883053879,0.8808281010423058,0.22536174219674088,-0.41618438916315403,-0.42095384328929697,-0.9986090655083446,-0.946022438950838,0.04230916843256649],[-0.46624569233336066,0.5933491973637106,-0.9944408991478251,0.766359129326236,0.3430019107515063,0.7774135270051268,-0.47469734089077287,-0.6713038583486637,0.7695258961186728,-0.9112921327185926,-0.953912514482655,0.30489746642002036,0.9164400917267339,0.25529836388427896,-0.6401027478813806,0.32119873876871496,0.05449652854410747,-0.19280760668802044,-0.2771583225775043,0.6354336538423944,0.25641326327445535,0.5857478934274818,0.12805246777088497,-0.8254412889579976,0.6930421279036634,-0.029629302359950316,-0.39998867334372346,0.07836406957354791,0.5779144905519611,-0.4141580974603487,0.09242416249269825,-0.3797923193386672,0.45263206712030124,0.843178776442481,0.6520367874446857,0.4555319574082297,-0.822109341628614,0.7225080588275907,-0.10937292059568904,-0.043824952006345175,-0.7308814133807768,-0.33500360226301673,-0.7458552495407496,-0.502139976129671,-0.02383580449967715,-0.1189639088152954,-0.14192643586141607,0.28091114656301786,0.11114436396795213,0.26557553950772395,-0.05425659680049977,0.5269124764083397,0.3666644287923435,0.4851491037058131,-0.7892384435482742,-0.4365966497037719,0.9089063766315331,-0.6458393175855739,-0.7870119193050105,0.8863105246731227,0.9451713737025078,-0.9405004847055056,0.18772230239837384,0.47120312209442927,-0.9854597203958733,0.08824885373634661,-0.9654244044960794,-0.8218220231008972,0.6869899679920897,0.9416184962295291,-0.04459993062791279,0.9012740716017795,0.5010212149620146,0.5280775883205435,-0.5887221776729783,-0.809058443364993,0.12697475830155192,-0.3221178362550301,0.7122338094576954,-0.6591666580115141,-0.16899666671727642,0.08175773502837602,-0.6992712557860288,-0.9714222702842892,0.8100931070770758,-0.6373882792424372,0.8285253381703326,-0.19553360098617256,-0.9763947576833734,-0.6407434269728727,0.20573418277504008,0.9700484979101502,0.0035497900519372294,0.14271877529416388,-0.011621135563673057,0.7553002949951146,-0.7746928902631836,0.06592189152135264,-0.359154754662085,-0.7065310479116294,-0.42406958510591464,-0.3891296069149952,-0.7514052164301313,-0.5052756232180919,0.6260478353381309,-0.10156902898308529,0.008453879304538336,0.7747645534174201,0.09831903751180837,-0.9252399446586312,0.003025536801680939,0.13933017119163305,-0.5060770078039156,-0.8083673208805,0.1408578657720838,0.4694772275083072,-0.8457245252241372,0.9865153598909355,-0.7010772715075073,-0.3121081590306827,0.6809620050706107,0.14558842548273931,-0.4525616135462722,-0.8578892289657465,0.2532927880859921,0.2120273499482037,0.8857733701926755,-0.1966860177327483],[0.43050211220944234,0.26385663728951947,0.5351855329800292,-0.004667496185833286,0.40430045887376886,-0.648281125692256,0.1908590855723089,-0.8048334889449507,-0.0038535603494427306,0.973448660120229,-0.011231186246867253,0.28880242153976443,0.638226758490485,0.058022247785390224,-0.7838925593917434,-0.3484101745883592,0.665739921827257,-0.1443681904760239,-0.2829239634053038,-0.4148496420444041,0.07047142848814092,-0.16656669107554078,-0.44673570480550673,0.5367553017890696,0.10242892752690835,0.27026055310763164,-0.18493669494488563,-0.6535680530810182,-0.6423830001063835,-0.5443353096389152,-0.5126251783545515,0.9770991738219514,-0.8725438535775041,-0.8383011874281721,0.6601862463941401,0.7966854924301598,-0.6296891885597047,-0.8515744578310702,-0.2984730263033337,-0.8045493790974332,-0.227082935969658,-0.23185060012859227,-0.8673984852890149,-0.19088647772651646,-0.03270171888181439,-0.556543077799315,0.11044306791703606,-0.8813341317512604,-0.8286517663056645,-0.9616453366250108,0.8141703542232843,-0.41674073928790545,0.43340565813926135,0.055503005901035074,-0.35120406429348305,-0.20184452624890126,-0.8127989444605332,0.44578380213545676,0.42198755683288436,-0.9250459609725397,0.9227662771254952,0.15629396915079052,-0.3422507735182734,-0.8771191094611033,-0.10252935379297323,0.01702708101382422,0.09231292746403952,-0.1294125555342962,-0.724372200696167,-0.5527678829733178,0.23087275768948734,0.27989078255267774,0.7934064528090472,0.3162574601814958,0.7884441997114764,-0.4155957639549266,0.563196515842642,0.49313550979516485,0.7441529410775485,-0.5802506600553046,0.3585246271628648,-0.27980643097004565,0.11351978713638333,0.4401992363292324,-0.8135094335254229,-0.8481269507088576,-0.9477088431630221,-0.4338466248361055,-0.743645088664052,-0.5895780658500698,-0.842221259682983,0.33963287972318223,-0.25091865596656726,-0.8365085418708804,-0.4670500613456512,0.9336308607449113,0.8560732287772344,0.9916319595622416,0.9200253251381016,-0.6539618602097352,-0.5309598692676261,-0.963484506181068,0.8711061097180859,-0.8966112378136604,-0.20459615490093785,-0.3206180948697459,0.423261766406994,-0.9498722788906524,0.4582557780071985,0.24703196004096828,0.7417576273706614,-0.9651729417009602,-0.7246856747886201,-0.521116709320852,-0.7372023464917201,-0.7857878138162531,-0.44189965943272247,-0.11133618864174766,-0.5125765719436721,-0.8667232107135154,-0.013024016072453737,0.8529206537304312,-0.5261250288527113,0.44051275580475036,-0.18372895126770894,0.8462236489005956,0.812815290062777,0.7823478881932919],[0.20134198012354831,0.4051664497384615,0.6866526584990802,0.550687464203663,0.8327650977328984,-0.06500235638327068,-0.4769113364060833,-0.09919541507003915,-0.7612733401201459,-0.5701605428193304,-0.20117513862506486,0.12073418340516273,-0.6870313274958431,-0.1219087027768051,-0.32439087511602205,0.350187430907535,0.7379081592483518,0.34379145375108777,0.39804714965273114,0.46152034949580134,0.43463605480086764,0.4483827853896849,-0.12043535865391242,-0.15896495959026158,-0.6290525903109154,0.3240487404635042,-0.3246572460603372,0.44018418282313654,0.8328976675194055,-0.3181989141194803,-0.2138190628287009,-0.5568315876972996,-0.7175749612560578,0.5034558446424895,0.9566023630549894,-0.8510453318590279,-0.744666865271181,-0.7377583811211226,-0.9654099891683763,0.6992571321207373,-0.8070092747231183,-0.20088275570123493,0.30010028981999515,-0.47561609442451314,0.35739309414135123,-0.4946587848844546,-0.5001707496918053,0.1908154256889043,0.4354484231819473,0.46995725107258624,-0.026110538095451385,-0.6766367164220775,0.270352832337696,0.6306858912686457,-0.002143847198533777,0.7188864825575338,0.8111303489966928,0.4587324870545433,-0.17321605543654828,0.3921714735386672,0.17388756354645674,-0.23005168978524493,0.9652965210951328,-0.6109634257999876,0.7476605544924357,-0.6032800432486254,-0.6504631621900461,0.9954843233215236,-0.609596518649421,-0.5903174924728107,0.07435215641672066,-0.3930430558803577,0.3154517228987026,-0.6487162624004497,0.25855020205942836,0.18104317296404115,-0.47462190217701083,-0.4444039882570525,-0.9270703667149887,-0.6317490624097553,0.6838307249737743,0.5045390652443755,-0.8090295648333354,0.16140921069163738,0.4384699359333215,-0.08420292143264607,-0.4308842364709826,0.8668891965288732,-0.9176314653389164,-0.6343534489250358,-0.8546602215033015,-0.6310963449655285,-0.5325848996067379,0.9128088655220319,0.6709459078383624,0.8300721152071557,-0.31671895769391334,0.07027273411542856,-0.03148254337617029,0.44373567010549886,0.6001212744907098,0.5498487227518156,0.07072675575956655,-0.8524796091470637,-0.23106098780141737,-0.5486366066211943,-0.7469259539565445,0.010065697988999478,0.45942619059959,0.8085221918084544,-0.30229043495820385,0.5549966033771097,0.9308689622060515,0.033107210010106414,-0.5455157074943813,-0.979326787676122,-0.6080398460535759,-0.482365262871415,-0.7201089079267939,-0.8098317442709737,-0.9952883169810338,0.05839934917696388,0.8511005445156212,0.49178834770151125,-0.09011288875922085,0.2021857084640728,0.07727608498792593,-0.1807366676202844],[-0.665118874890386,0.5896035893601077,-0.07919703007091794,0.8908594368369847,0.8647609738811566,-0.6782273747084524,-0.8780315443748505,0.16613643238303766,-0.7451103380911834,0.12459808035513609,0.5704699515756921,-0.0407535468719753,-0.9393466226225353,-0.5593017885581575,-0.3412863202571983,0.1555500028819048,0.9565992930731491,-0.8858026498677458,-0.15337381447315668,-0.060476039993422326,0.16420471770399647,0.6260340785645409,0.3366169763727669,-0.2681097624844093,0.4859822472063553,-0.8970074814694033,-0.013379859433465757,-0.5139590973780424,0.30026695696874084,0.6807757164145838,0.3144652480725716,-0.4965872177412112,-0.1871267555834666,0.06067483095026249,-0.8827312283289594,0.10664845013691515,-0.41101508421850275,0.5471875675109303,0.8600412341637567,0.7730752927450251,0.36557308041270664,0.012846184530409754,-0.7739345547732746,0.35744647732564117,-0.27641751086967226,0.04938065172231498,-0.33930240723720706,0.6033704578619665,0.7456277076651827,0.20221604002919502,-0.9071242088031624,0.8364299471178138,0.2756105099842423,0.15601965383123328,-0.09143846765480035,-0.526265178745557,-0.4497072561382063,-0.2476112595656601,-0.8391558651669406,-0.5111204885927711,-0.8519510692339973,0.3104239812644458,0.0995581689884033,0.9105913336825249,0.38203800932106313,-0.5271422558874392,0.17496063748466373,-0.05081800779918666,0.312576121744748,-0.3782888363024526,-0.9584632192012683,-0.2663409494069855,-0.6762029064862638,0.9934278835507313,-0.3591331202876815,0.12853079788574284,0.683645507282737,-0.38183378351752806,-0.3838713555719293,-0.3169953016843299,-0.26261585222014716,0.8013639297468473,-0.24412087333091925,-0.4502184986602509,0.4000948869280059,-0.5950005587726861,-0.9727758135518365,0.7300624678378966,-0.6334757945566305,-0.9459052184101031,-0.7471232336520175,-0.3700217101072063,0.6923591274622503,0.08130240657288201,-0.6140240695653065,-0.5403774959449623,0.2707130099515389,0.36815314686725964,-0.13683023697645025,0.48388445055913065,-0.9063752066277799,0.3054340044478234,-0.09557655532307141,0.28884921981527656,-0.9731810499670068,-0.21813589007247458,-0.9786983972848695,-0.9827336328020406,0.7194413809099554,0.5747311336009839,-0.7017440314697438,-0.1075478517227193,0.2628204726594934,-0.63758278080785,0.2953288946688368,-0.38737803160310813,-0.10006866548898818,-0.8407296750503925,0.6667730082223451,-0.7226050172616234,0.12632927945573202,0.4906110888337434,0.8779301331660774,0.5445765360230417,-0.9109746825939733,0.8593607276504578,-0.46799453859392726,-0.368269926651549],[0.19289961816324697,0.31042324568826407,-0.15954748858006473,-0.6918573571844946,0.6099058417149479,-0.4471500668298769,0.5484905977722394,0.016691448943838783,0.7116548111721603,-0.054279297385622094,-0.8709533935246863,0.6529523675353142,-0.9798114881759807,0.48892222305245037,-0.5716253418207149,-0.37108925659557723,0.311225117660173,0.19387088671881836,0.9735855493657861,0.9981287974375794,0.6445841359578495,0.7295532078823879,-0.8548652851476715,-0.08419520147695447,0.6008354828329603,-0.48434114845990406,-0.7510584432597955,-0.7156490145936121,-0.12579409371695283,-0.851827776557724,0.8078347690958996,0.8685925255926925,0.10843241741602672,-0.028161258749374696,-0.6850302574867109,0.107113563921589,0.01219085270035114,0.8659271923103233,-0.2842208847601677,0.4235284360998022,-0.7246048907660021,-0.4148800675049449,0.6787134998201281,0.7584253522271927,-0.3800121613900176,0.36003351244319814,0.9097755153111438,0.05689856147473327,0.4386794074577227,0.1226526953900704,0.11410468170402632,-0.6960501300118991,-0.03941611709497783,0.29367946974835535,-0.6506235712620003,-0.9394854171491493,-0.2797304473662683,0.2225787117582123,-0.6668327051087504,0.3434822831156481,0.5552964864826873,0.008938057115658982,0.13154216751504677,0.3498505923974138,-0.8682351682246741,0.1087579428711587,-0.4943249546346462,-0.7289228589472234,0.4913417966423994,0.38630394371569166,-0.19518937862382568,0.59527661862395,-0.03531126650089922,-0.12075453273548042,0.8147728179884841,0.16819025322334413,-0.8564974222561013,0.8363319456899481,0.5052197519464823,0.12786000592410884,0.10297032990167843,0.20836556688347718,0.9985015171531373,0.38945599341559456,0.01920266112677993,-0.7940804567515221,0.25457482853036106,-0.7398971062896984,-0.33527998179786733,-0.7088584144563015,0.3690242463989728,-0.26783970761187526,-0.19346270922815156,0.963875951171365,-0.4668884646365963,0.29738094778619084,-0.7594909696894483,0.9166594273890385,-0.5271721267197731,0.18045887238129987,0.12843924381102356,-0.6807350668082819,-0.9490872042622835,-0.8416928703859914,0.5624324877095397,0.16720659178757158,-0.27442215544086945,-0.7618737595541072,0.229850500643058,-0.6856478050552979,-0.37269594789481886,-0.7976151988248654,0.14133473833368848,0.7054615781968612,-0.7831675227685131,-0.35849819745132727,-0.669692661983508,-0.06173491453921898,-0.17957228853811813,-0.9444670472242822,0.5808774570558071,0.18718775613580263,0.5050567658996696,-0.5389670316817958,-0.09340463608624638,-0.27460763992714776,-0.10616961611995723,-0.429596804365032],[0.22258613289449025,-0.5451594663986619,0.5858222066669727,-0.0001333809929153773,0.3912611073578107,0.7167580335577366,0.7076510668197447,-0.9709327196958397,-0.8337710384125159,0.0060655085555620936,0.8404868823323093,0.47830172480865807,-0.8643285558194602,0.6767507744762309,-0.6690919570638636,-0.42068416728741687,-0.785859470179497,0.9651097457660627,0.5706329736083791,-0.4681397764295441,0.10092687788011467,-0.5584263946009669,-0.807913142284626,0.126039430677932,-0.9620514992294411,0.014549751904243013,0.16403986697235506,-0.8826887363993232,-0.6386333203617696,-0.6751012719938974,-0.752473808381287,-0.34720244471648787,0.2271472971883859,-0.8557002871312744,0.7932730716529401,0.9714880098193066,0.5316795984922416,0.15694681951349176,0.07386728508784968,-0.03771128663028822,0.5923514902038991,-0.9425728994830309,0.8618009414237959,0.5498199904916383,0.9903425787793134,0.5551815030165752,-0.6331245683595821,-0.06831631190669807,0.8301870114776575,0.04261329068294817,-0.503678961946004,0.6822434492667813,0.9800429545822742,-0.17189591762676537,-0.3819499355110274,-0.24613183120617288,0.5932614547688408,-0.693746435797129,-0.6880934730276191,0.5647842367944444,-0.24663315733617752,0.02038578197560259,0.13156996867262105,-0.4783419812485894,0.9089341327570275,0.19086735313476133,0.06032298086661081,0.6418640147836765,0.49555800388923466,0.04538390835655637,-0.7395286299636261,-0.8879299957766458,0.4633399436779908,0.5620597478964302,-0.7670382545960965,0.815511511882069,0.17052134906681005,0.5059804296570736,-0.5812067086390336,-0.7636850072045607,0.14632886007313584,-0.028491511128505564,0.9571824263695108,0.7819968189821274,0.7118913582662865,-0.9410211513323854,0.8286195309029529,-0.16786610416781578,0.6643842063845624,0.1316965067049698,-0.27747724050132616,0.10680657722512388,0.1347926264315471,-0.16347683223996912,0.5086107806183571,0.006986419603492333,-0.59841526802566,-0.39994692867505677,-0.4262799706548508,-0.9274480222656893,-0.9952277534374208,0.36686292954384525,0.9455533841921588,-0.27205823839312604,0.6467326794614552,0.5095704336301541,0.005143064398774211,-0.10121889169932974,0.16860184652253807,-0.6358616873490872,0.921755864244663,-0.9371881900211871,0.12816224765923456,-0.5118077638874166,0.1507535551835546,-0.18364887937573826,0.3954044074387877,0.5098076124109019,0.6364482964087048,-0.9857256245815411,0.2066531878350819,0.03605845499986726,-0.6073274196347196,-0.4435856473636637,0.6385113343168647,-0.8465863418480692,0.3301170844082093,0.7375494013906772],[-0.3307054424131981,0.20630781429147316,-0.9210644309866538,0.2657807343333429,0.928988068331214,0.7754556459186399,-0.6922487739380565,-0.3069704504920572,0.5069782130513523,-0.6787334221350076,0.41432484700280714,0.7559405535766501,0.13851398643159119,0.1642408114769882,0.28471174911250996,-0.7475292523000943,0.24804356286130202,-0.972590270985553,-0.22381472643049483,0.6738971980315056,-0.4773087576045931,-0.11473705809554202,-0.1546026770879032,0.6590458836804243,0.13606289869030475,0.6362811515594489,0.10683484162940493,0.19145960022063147,-0.9767043368549859,0.6808760886646326,-0.4162615245069885,-0.3287957231685694,0.3047873306740936,0.22123823940889586,-0.34425654193286537,-0.011601998247519063,0.7784790534408401,-0.8321505707182091,-0.8853361676881084,0.020968341727896966,0.8601251562159877,-0.5780321706961455,0.8540411491805187,0.6874654411094712,0.6073970711471044,0.737723056388083,-0.40732304001623687,-0.11441757816677667,-0.2515956412035094,0.04819766499788658,0.47822556350347867,0.3572982760625658,0.0357643553230762,-0.10138837045181504,0.4787998896770609,-0.7449283758954133,-0.3352194344890034,-0.8677948961356736,-0.03570050132987257,0.46287603745262773,0.3995777251714574,-0.42945879593884406,-0.5463379023575659,0.7489062964849587,-0.9781378500005777,-0.3837811898145067,-0.8564869477899082,0.5813991044034275,0.10683830603885358,0.5147370157262299,0.5830186670008675,0.5403062835483756,-0.027889382186863543,0.2056286661701492,0.3105939049198283,-0.07016723361680466,-0.6805167271451809,-0.35426567748319115,0.3634788587441369,-0.3015843282745898,0.5850952239990685,-0.8379074267615496,-0.9541936260374952,0.04678143991417194,0.34465174026935497,0.1080049613462517,0.8795592350502721,0.8537825495550253,0.43532697334420334,-0.07361121811957405,-0.5416657966490783,0.3980643737985794,0.22809626666801996,-0.6406760194813037,0.41523385598765516,-0.16669298480804207,0.29956614397790915,0.9234400342786158,0.32172107069859335,-0.16531653162507665,-0.7567465632664074,-0.9993206356794282,-0.37430135986408697,0.6909927208434601,0.41524582845917646,-0.8612889083240836,0.29168963590124886,-0.04200343970789788,0.3308900497623104,0.5441026886709759,-0.3854567694111313,-0.45115570975507957,0.15388598605682846,-0.5774143003903065,-0.0770247396953958,-0.6722165553085988,0.4252593310012749,-0.49554017276285345,-0.7217722336052552,-0.4417934077875172,0.21092629252309036,-0.5553360233093287,0.9597016207510407,-0.9968538858437079,-0.6102574362157616,0.18784252699384085,0.9820793460703316,-0.007276748604409189],[-0.2980067361906511,-0.6324210107897814,-0.14212534288226575,-0.8829259162360494,0.021105261058393943,-0.9179784001891802,-0.9515560725737702,0.46762125901209606,0.36777259687040287,-0.7527968777121847,-0.9735992664128754,-0.12583507305703368,0.5809849862425063,-0.03534820791919957,-0.04424338466785249,-0.6985642539985277,-0.8461236213866079,0.28754867791288596,0.16773727724075238,0.8542830617487045,-0.6821521962472241,-0.17042215182344922,0.570936571417259,-0.9754377304365871,0.28714214167075003,0.9344201837613877,0.813084538360394,-0.400830668187488,-0.042141945821780435,-0.6859473901841944,0.8411173159271024,0.5021054780800784,-0.031333610356994335,0.5592430794373455,0.09668926897589669,-0.9669946881014106,-0.8705547817217809,0.26343195611850323,0.32081820836630204,-0.8621852164674371,-0.6948297920281821,-0.2438310772194403,0.7148200541084764,0.962435067181374,-0.550825572395417,-0.744379309035788,-0.5986544689152526,0.9807789162051632,0.5115077641533325,-0.17388288183034994,0.9334340987177603,0.17058015900393775,-0.41883131042101907,-0.07065924139574742,0.3462439931707939,0.6020689231443033,-0.7433335170084789,0.7204454410714636,0.9080097757547589,0.8479668540098508,0.6020819746283665,-0.3758548661398322,0.58625156616089,-0.4289768207864091,0.93499139029641,-0.4866819255746808,-0.2630162459808423,-0.2685944414709147,0.4623905950150773,0.2959123284714451,0.7425836937149657,0.8168574742830312,0.314453273786631,-0.5199910423324545,0.5854876933223054,-0.10393678657458283,0.9931271740857568,0.7983549643422765,-0.5332894003237714,0.9772141283334306,-0.16788967310818936,0.13262201047571054,-0.2375634648608771,-0.048728577161504916,0.10287370299279841,0.8634350545935994,-0.45439430468234265,0.2834675452745308,-0.5318847052203495,-0.4298799416486667,0.7765287314248415,-0.9837094158524429,-0.3394642565522812,0.9108015615954361,0.8793502604515697,0.8854970832339322,0.20081820378644943,-0.4324404892745295,0.7529824240498546,0.22318606482247194,0.9760035277484933,0.4939007454263562,-0.11211009095204227,-0.4146147924920527,-0.9384500415352957,-0.8063279783559474,0.19788706907528253,0.4427767332628494,-0.3431116436393147,-0.939625521182549,0.9085170402134342,-0.9601657475245604,0.46921165041693147,-0.689022393110791,0.18843269708986954,-0.7954724673285267,-0.12859226975186955,0.5838569990458655,-0.7334736518814537,-0.9974210476987087,0.7178909719614244,0.25001751977707753,-0.8592542615933492,0.5214210606603125,-0.10923632725105259,-0.808700642762223,-0.8838197247596344,-0.1210755350691386],[-0.7378057277964597,0.32668390197157754,0.445501300832614,0.25116030144976437,-0.42149948147355226,-0.5885687781687172,0.26331679785417567,-0.5586661052664759,-0.7748261813029493,0.6028957382722533,0.3551031314586672,-0.20559547899539515,-0.1717622536242745,-0.2176612487078397,0.7126575052029702,0.159291784273566,0.8723155202056146,-0.0023586738349401456,0.6322756419513617,-0.43713740090334036,-0.016060747111325466,0.7856838005292835,0.15010309179671347,0.7990063594935592,0.9964591371331459,0.5562297013818145,-0.8233064721179618,0.5615906422763536,-0.9283464329770333,-0.36383914126832956,0.47913644124227195,0.06922295920991399,-0.04931977004720267,-0.1359084562040749,-0.8550299860423773,0.47870016656039904,-0.3941934176795917,-0.6029416153025566,0.3789273416542032,-0.8862754107644374,-0.4953303145463122,-0.616836191029479,0.5601361735091246,0.7770452940485283,-0.08955813731177022,-0.6342734277160902,0.647126086647413,0.7376019222758817,-0.8999345273013983,-0.016843891163547158,0.21293709599312902,0.4547334579105094,0.23191330470142407,0.5487113098474102,0.329305392447075,0.4604109648044968,-0.6892451748524518,-0.8433242966900328,0.5522563504257593,0.7825470479242576,-0.14187757783515975,0.7216414774435153,-0.14912607921070253,0.46579123780239806,-0.25872661631126925,0.8996068227141706,0.9098238799965506,0.9467956877077841,0.7735060015955211,-0.22695005614950237,0.9077650205412329,0.711761458112006,0.6919562738839728,-0.5211945162201834,-0.6052883084622469,0.36012372294039763,-0.11223651730423208,0.6216049399812426,0.6450043642052986,0.5974776623093191,-0.6970543337994267,-0.8217352501717378,0.3383162644753287,-0.6167517801391061,-0.5052066293188626,0.38347762724839635,0.9533982223109353,-0.05161568724145612,-0.7617956391032508,-0.7395576954408277,0.36582803643366196,-0.2883806152933889,-0.9949152313704567,-0.3249108829606996,0.8184303926607442,-0.3009431911852152,-0.44849232422009316,0.13139013787297757,-0.7421276587220249,0.31774507468259106,-0.5596717823830684,0.31205881284207965,-0.8539842311804464,-0.5594184037549826,0.111648720373255,0.029867455343492957,-0.7910841638440753,-0.7257902478110986,-0.2837596820193728,0.7335466494035817,-0.5822109692250964,-0.06582671781722324,0.32550070693042366,0.08941944448042687,-0.7376313115512942,0.7188607431792151,0.727745397713682,0.21857872153337973,-0.542292239390955,0.9498039266499494,0.5391204417074426,0.20385709082319037,-0.7267709551578013,0.6041940398197502,0.3213167773848672,-0.8727937094813403,0.18422846426737446,0.616596057537182],[-0.10545263476235413,0.36386424066595996,0.9824610538763203,0.2608975362330521,0.6884564857479025,0.4306786388211669,-0.35906599510838855,-0.39342086887230654,-0.7457079148232438,0.025604848817610486,0.9041119372820178,-0.18515349755813182,0.5016282005360634,0.7092598552661415,0.6603993895350814,0.9232430463443049,-0.7805378726654766,0.995690613983484,-0.8311319387981304,-0.5866676910007294,-0.07151244773960208,-0.2913837437846412,0.6192354580187066,0.025803586190668856,0.07614058880315273,0.9878963482728947,0.7934503763893019,0.1431594046285563,-0.6441902401000297,0.06978247883633013,0.7549970767426806,0.6528941071301521,0.2763575402010323,-0.5385462521113705,-0.24722991731987318,-0.011171484392441148,0.9363644530392743,0.8124356724974255,-0.3684485401058291,-0.6258625151849548,0.536012659100461,0.7918481989757007,-0.16164008547161107,-0.8330725021383849,0.021182867884385552,-0.33291505139302446,0.36884557544722385,0.22299082142251375,-0.8068057707264977,0.05735480156856121,0.10493866777013615,-0.9859871757342336,-0.8093054124319214,0.08488271574956907,-0.03546924829412305,0.6381188097008705,-0.06115846314731935,0.21498323972494382,0.6699570107965174,0.8569490054488519,0.34460274487972375,-0.9484954256171801,0.9791016365802016,-0.06279312059268996,-0.6769074652961199,0.845934640920074,0.6396138761138244,0.056085327459231483,-0.5358749729387403,-0.8503516471388273,0.6549644312435244,0.07104969207341631,-0.555579094587863,0.446150892461878,0.2569067072592141,0.7728095592102617,0.7667373719521248,-0.5756338354570812,0.4708815384630044,-0.19927619074224392,0.6937387017033542,-0.22286010643929519,0.47477588524204095,0.6717302419297317,-0.4731577915879307,0.11386468525398112,0.8435222188033841,-0.3423199360000905,-0.5850090583980776,-0.6732901169143338,0.19299218179341018,-0.4333260540765804,0.5894790928253711,0.22585148986361334,0.5199413202698873,0.27779446775756633,-0.7470479072237494,-0.6087070208440222,0.15346129453660148,-0.5031647268006635,-0.33461640540745563,0.1852514577357872,0.1372599371857515,-0.08783984110964792,-0.13434514663895541,-0.46500414240654203,-0.16454516019974577,0.2161228358242941,-0.26537376061479667,0.8734302915580987,0.3427089275063476,-0.36435022717747956,-0.31223879317463543,0.22483339011380363,-0.9902637388627439,-0.8298237272287872,-0.18336109178063104,0.2544114163560221,-0.9753659325775097,0.739454705201833,0.10403569957928038,-0.4685179984520798,-0.9673775128302539,-0.12941665696770968,0.6030818425743188,0.23885813673816247,0.8186125122674401,-0.7620056597989083],[-0.507344777533671,0.8699050932048741,0.6428888416290334,0.07629292674495991,-0.22203319537141009,0.7731580227597429,-0.3507869882997631,0.8590738453165325,0.12227650946308999,-0.16981856577448676,0.7526688815868885,0.6273386963719776,-0.5303261206377782,0.21687267585349515,-0.4237358582452599,-0.309182028471253,0.7346798033678971,0.5291872859173993,0.5038351744365202,-0.09753197973957058,0.27745503838499724,0.30616748657687815,0.5121447395264236,0.9515444323600996,-0.01045530394038944,0.33960864885375625,-0.6389842671506903,0.6308801926050436,-0.433474860487369,0.667630117131906,0.47546294348216356,0.38973685141413933,-0.3742184997176119,0.1813500906951543,0.508398702551013,-0.7511575612521002,-0.6269128955635114,-0.11558150944682333,0.062452031925878754,-0.40497851070974544,-0.11601789731972843,-0.8266138628458408,0.3055801701521103,0.9899414522856465,-0.44916495352080926,0.8283061336225112,-0.5615569159733101,0.6970777241817249,-0.32530430092279894,0.965996730645925,-0.15441391541463909,0.3899658088067459,0.2856628805063465,0.8488050491695475,-0.19330195961825025,0.07113148905989986,-0.45073160041150756,0.35599643086270294,-0.3354838979447823,-0.6380856418769862,0.01937844274344574,-0.35854963281765806,-0.9325727545030368,-0.9877413849697924,-0.7456446157900931,0.2016867176304049,-0.8567934427478894,0.252423019511592,0.03380231749809494,0.568829518568573,-0.360825284037621,0.04195884026693446,0.4548750950502202,0.7873972170575095,-0.7185055773834839,-0.8016050433466445,-0.6495084595335252,-0.36405613875171317,0.19567248683711722,0.6094005817984028,-0.9892019420902347,0.8795274020073751,-0.5542174182460388,-0.9393644026968064,0.7792434908644011,0.5418606113700228,0.8079431714382784,-0.00022605946098464997,-0.9593417070023252,-0.47171539688825836,0.8580104512351481,0.9444457198873305,0.6121106807713483,0.36801893326418644,0.03973007791102536,-0.6066920726641784,-0.6842450282150903,-0.22059609918776282,-0.4668512538433885,0.0738713776214214,-0.07339424713864125,0.21034663224614966,0.810207866785951,0.5945538737994518,-0.11315122791595358,-0.7394627460823824,-0.549335621621516,-0.04821525937400892,0.19307427522129397,0.06103739768663162,0.7076244063397463,-0.5852049367952001,-0.007438776246004029,-0.939553187641044,0.21555230520114763,0.4483608094818905,-0.9084044471996822,0.5971530660616066,-0.7702355731818796,0.38843625053700115,0.2295046399392444,0.7071479291813099,-0.7907582830276648,-0.9881430258211327,0.6661681669535533,0.3148604521509907,-0.07867240076545844,0.9830821267991888],[0.8727863670214188,0.0031788174548179875,0.7318980889138553,-0.8694059124909571,0.7218847542594484,-0.12502656334940332,-0.8584648763182837,0.9101790924952491,-0.5516735357365131,-0.791912302961429,0.3338836519595697,-0.41302036836013356,-0.4955420783729545,-0.2744004957067424,0.2729314659209053,-0.829564589726083,0.6655233484551845,0.5302410162564747,0.5531820808287793,-0.015377875876244215,-0.8414027503282191,-0.02832840760061842,-0.9980410561999072,0.8143807836719404,0.3987861531429711,0.8700279956714747,0.3783052453874038,-0.4022648053546967,0.2700382153665801,0.45727638700396567,0.9851376767588641,-0.5661837381326928,-0.12398177403584834,0.6962050483715357,0.557270079444483,0.8337738068717858,0.5901851395121195,0.6334280895432046,-0.9151692540979007,0.6745407437943881,-0.4464528519971018,0.15926599956646828,-0.5581276582717485,0.2410944977695111,0.18166194477481956,-0.6580464876830042,-0.45919204340778036,0.16502451358198714,0.231902434640225,0.09219061158623999,0.4793751576769249,0.9229127771433642,0.02844355821411528,0.5649223151743616,-0.5210567439070953,-0.12296821106640024,-0.087116187704564,-0.6628386543204461,0.9733847590121767,0.023571570164364817,0.04139828310254918,-0.2987658202186028,-0.06456025865525475,0.19592755230289646,-0.24819886715097556,-0.8903775475643353,-0.48780758549107434,-0.6706816231127484,0.2899843986486947,-0.7054019770138638,0.7066470033930689,-0.9671895539533747,-0.1732099730891318,-0.9426593835997127,0.13364123965211047,-0.5781185732430552,0.3364257924772702,-0.931627606034855,0.6687108187866108,0.5090699487850552,-0.6146645193092684,0.10417949940915625,0.9237434848121377,0.9123486457984763,-0.8226611998566816,-0.15916620768165204,-0.13891631053143857,0.6846060472721845,-0.8627639872157671,-0.6469192700443417,-0.7878954042626252,-0.3769276884492492,0.8547916000380661,0.5627665887452402,-0.8638901908071664,0.09043987287227359,-0.40465985877653043,0.01551191030271138,0.7786428054803055,-0.9533477320975915,0.42770325212588767,0.45711112263266085,0.24069414364135083,-0.20672911242265007,-0.7682841057607174,-0.897570770729854,-0.691449351874343,-0.16253970772524648,0.8916472316863472,0.6451102006330462,0.03894569982026412,-0.3381096874568601,-0.20558125772730904,-0.978316258771757,-0.09769986180207094,-0.05134458125480717,0.3833110328985961,0.7740648196976022,-0.4248151522063549,0.8978463175840787,0.4514532118140302,-0.6427111819867295,0.26431851619356117,-0.2723188835316893,-0.2789221696855743,0.45979709986743134,0.5942681231769734,-0.04111336332149113],[-0.9948848359353581,0.838839975074678,0.34207803029047845,-0.08733315368486405,-0.45400152078817824,0.05631511473732642,-0.9483631213280064,-0.6964600910888312,-0.12556354732094466,0.7163278037020353,-0.5852867352946216,-0.9086463702079088,-0.13615791479848527,-0.33931846758745365,-0.7866649317516652,0.44606494044691836,-0.7688553931647588,-0.7318338091805878,0.2826127073852924,-0.39837031486395746,-0.16376817025859047,0.5916297265248476,0.15400795920130594,0.2609310088812209,-0.22532741541808665,0.3488896925932279,-0.12895116117234107,-0.6918819205351721,0.8606855032421064,0.23113926202865853,0.8341588019194313,0.9246295700221343,-0.38510672546122926,0.6584006367800881,-0.26608353200528656,-0.1886263057319546,-0.38352073285486643,-0.4985937093229409,0.1397148660797205,0.7238147383674116,-0.27840469674718005,-0.38427357547121543,0.6923531983709021,-0.9622481888132168,-0.4396949746206982,0.640029089995644,0.0846438673388148,-0.3667173290500516,0.9791293503313567,0.3475673200089813,0.960313480124336,-0.743573793893535,0.8032310576280226,0.6054842579258906,0.9796597568408223,-0.5590386310776143,-0.16086681328027375,0.9095799098320123,0.7064598253078191,-0.5761465800438721,-0.6608679822919448,0.4856256572549622,-0.4375963632599582,-0.30919512946236205,0.5556033083868992,0.009669610018069985,-0.05362981650859666,0.3202453412950823,0.4076579566505929,0.4683460361598488,-0.2119709448788205,0.8038912357638761,0.02586221830642188,-0.9072960778463774,-0.8393188454074951,-0.9668924552957714,0.14391434451016982,0.04587890536640904,0.3624476732809634,-0.890330041110063,0.23788052622528877,-0.9528986006177007,0.6251395423366257,0.9754445951868553,0.26389158991846573,-0.9085547116984394,0.27651596916252563,0.5272799541022288,0.8474999781605259,-0.9983024157673106,0.4682536941347135,-0.21690943847331523,0.9698915816514475,0.244416958944921,0.5625478433713416,-0.46318553015994857,-0.5499227743871371,-0.984642627774702,-0.5475509152643436,0.6853971329034483,0.348224463640296,0.9337407468607064,0.5184310910319865,0.1836489759115194,-0.09983369066797909,0.26683360954669055,-0.665502552119114,0.3413257927441191,-0.9986842858670264,0.3947708840569635,-0.578972928892977,-0.4306216691518743,-0.4169194180029705,0.13875498204188652,-0.13341052313328294,-0.26326879729611363,-0.8416764392651412,-0.8370758603984898,0.024698380090082406,-0.40935948825171176,0.2638915567226281,0.14851557591399844,0.9552578409212478,-0.4078123247760499,-0.5518344558512345,-0.5390168935375002,0.4544059563995093,-0.5695226879865034],[0.7743521537988447,0.999556765106604,0.4421643358231262,0.5462335371538272,-0.7384163476181063,0.3458748542060932,0.8766742917092696,0.7714540351164922,0.46280495236313834,-0.31480454074925257,0.673674399687306,-0.9054299466512603,0.6068449239732603,0.6648247434618204,-0.22139990784938002,0.08143812125893923,0.0842610327995108,-0.6986212374537715,-0.14132672389741918,0.17060252900770667,0.5560634723593476,-0.4674176957310774,0.39910964673972593,-0.791479843155285,0.20709185595988844,-0.061177976334357176,0.10224185859485146,-0.01074229587324993,-0.6898584773463807,0.26005172020898915,-0.14384319314148053,0.06695324583550422,-0.628008653779085,-0.6664966216888568,-0.21697202223338063,-0.7252408437158473,-0.9436222909487655,-0.7628445082550268,0.6065272882655948,0.1616807647812748,-0.7575730624787553,0.8128400777834073,0.3588405501904397,0.20123025415732432,0.23546854597353795,-0.6672970825302773,-0.18626430945754358,0.6821047272002763,-0.4772434257366611,0.4335158195886253,-0.9607155466660129,0.5904961767921351,0.4617720744903764,0.15165374046551516,-0.5872204036864868,-0.5669849954363282,0.7349466957758386,-0.5732231439347735,-0.2997117777654923,-0.06896755827003931,-0.6586337040683645,-0.28569411490854524,0.7835384799009448,-0.8862295879925184,0.4671026777603129,0.047853002873404105,-0.6318182770245979,0.5907555544878913,0.717604457777056,0.4958237849085938,-0.9648255406137367,0.3471577387255178,0.5207077062583831,0.14265560782076125,-0.9196223368126399,0.12554455558275412,-0.6368668785894336,0.6489709443261602,0.07336365062604733,0.9908937557164332,0.03596757648051074,-0.7152496890721372,0.27534938216128246,0.5097768959095919,0.1568064600467438,-0.17949575527735018,0.002554056495653878,0.5726778806131034,-0.42822027189683354,-0.43141131780308273,-0.22004142204886934,-0.7611064412407038,0.9053365128477404,0.8142147113622964,-0.8411469314619233,-0.014075634652625624,-0.7415982974163935,-0.6650015211175901,0.24296869795910858,0.41541981774393966,0.27873481213605134,-0.7442578764246823,-0.9659222296419623,0.4519380603215972,0.02545601015948229,-0.049448427567559516,0.6364863324619101,0.7862678286327034,-0.9614793796129892,0.08048425058740394,-0.835711334234035,-0.5657225466709539,-0.45892205105670447,-0.004899250768588548,0.08235280271004264,0.7232497122857904,0.6937526602603592,-0.5019342344055939,-0.9396710687257563,-0.601777066940008,-0.37917936386944673,-0.9100052211025393,0.24685951640566106,0.36508589484783727,0.8083288281540719,0.9658829443446049,-0.2983147455179269,0.8497541683834746],[-0.3980831510434224,0.1357393624840375,-0.41546092319835193,-0.19949513861738266,0.9568707559900487,0.6618118963461153,-0.9568619324949421,0.8906600803111657,0.4305089121852945,0.06770558440436458,-0.567557088178817,-0.4701840913566073,0.1670558172386971,-0.5323009663882119,0.0435097619718916,0.7905798810454914,-0.9937054212843992,0.10188303231928364,0.8011504218761161,0.05261300246150036,-0.7799810207444327,0.779400461668851,-0.7635779663337985,0.46449119500351044,0.3754773337590196,-0.4251090856929851,0.4707260782347329,-0.06167255546594941,-0.6288972088515772,0.9014629469906801,0.9496608129028714,0.9535717823454442,-0.6199230671390668,-0.3577464589697015,-0.824253450213563,0.7965218143064976,0.9334089802113446,-0.17964733061389282,-0.6825316633544292,-0.7081657899782452,-0.5892610015180093,0.4219850672319736,-0.8669129427571893,0.4928500876940496,-0.3929107453149081,0.3567465236739058,0.6722283867098211,0.8404964359618257,-0.04617732061812507,-0.11382844957588123,-0.022678026579654897,0.712712249998086,-0.942102043614268,0.5550568358717234,0.7158606310990088,0.9517154446677076,0.49006953536476416,-0.03313821865110267,-0.8612852499582533,-0.16413855459926463,0.07174490585100246,-0.4439299954162639,-0.6445267465755866,-0.5665096362872446,-0.36676051752006256,0.5947473077449521,-0.06568290784095554,-0.8941689224570912,-0.5225078398283469,-0.32570090251511763,0.048836690437072505,0.30377780546203104,0.21729772858836638,-0.3128818471405461,0.6481933881130373,0.47712331274439856,0.05971000372216295,-0.7841548611532034,0.9325495766016338,-0.7974670035110987,-0.6193504649846511,0.5131993078578194,0.9340717853276432,0.5361223096281988,0.36035719252043075,-0.795509710373135,0.8931983172391726,-0.3646753494002284,0.18599157480912254,-0.28667769038831237,-0.6765039210131252,-0.05235384831681289,0.08937260073637354,-0.8127513175884742,-0.3929071862286606,0.1627447144929981,-0.14794833544309327,0.13007126132479874,0.44187289962837584,-0.027203242593134558,0.5809583797505713,0.691222532309939,-0.18577135157262514,0.21872643729961183,0.04775749692290576,0.921818949391191,-0.02770327069897993,0.09985757363925662,-0.917723422679336,0.45124846651348527,-0.9547725408308252,-0.9570730389441682,-0.642050700822749,0.4922901612467334,-0.8360308351159742,0.7288318785927741,-0.7175738983196309,-0.09550487001674535,-0.37728736518395944,-0.4134816011632285,-0.4252104040180882,0.8128878870521836,-0.8626380711384223,-0.33285744768649117,0.6183053365293354,0.289658605424977,0.06828496096778158,0.9608661749652025],[-0.1057144202881597,0.29627210293912265,-0.9105956881167008,0.1448801123428609,-0.8798769501935029,-0.6269403228817119,0.3786224283648094,0.7135675594935438,-0.2709905594218984,-0.7626031409989942,-0.20187064530158905,0.1854333728202362,-0.14587316219282442,-0.96786952115911,0.9911555271492785,0.6686644994925901,0.5293605109141479,0.6625768566573678,-0.79225205108304,0.40328895838573375,0.6093555437057105,-0.06657384978062275,-0.8744459947642325,-0.04469082021744297,-0.890601541536788,-0.6975478353500018,0.39661207277912114,0.060777920957542975,0.8702985890207344,-0.06457635844114762,0.7634655175769329,-0.0045683594333336686,-0.5823105167149976,-0.27508161325179037,0.14042138333613607,0.344006628945829,0.21910706346748476,0.46533096912100813,0.05650773714278001,0.8367755037587798,-0.0322282090816528,-0.008128659619897505,0.5073396618056867,0.6864789518148156,-0.5316531240358326,0.6808002544867247,0.3772529034143983,-0.38644023808332406,0.8909950375552498,-0.15636280973166672,-0.3415675631562922,0.9844493285990903,-0.7448452609339702,0.7786379428598833,-0.569388162240426,-0.3410078278482054,-0.20894741450835408,-0.424684412097045,0.4915496278910285,0.886655098021838,0.22811694689237738,0.815461043436537,-0.6573654724902482,0.23549541609331248,0.1472467286276129,-0.46918427946755425,0.7217893724257385,-0.4005651891626951,0.09249737398709978,0.43809425784151257,-0.5288715217888424,-0.6964710629371851,0.5586650046375556,0.5189166396883156,0.2234400747698264,0.986372858937719,-0.5456389552549359,-0.8756878864919551,0.6714164914486389,-0.995107208634368,-0.4647110534548067,0.40424894504493336,-0.0017851507298245473,0.3105476905895448,0.5120642423234165,-0.24793195162550363,0.9911981514572186,0.033093954088882604,0.7640265479289341,0.83653010324876,0.44855349110278686,0.45656654987289924,-0.816669921923062,0.5991941408344093,-0.9003343963831503,-0.10217030102003566,0.42161698253207636,0.2832079859066079,0.6704146307003804,-0.3945304788059647,0.22662735480957608,-0.47546539862473214,-0.5169987939760872,0.09869288123719056,-0.1913981819995021,0.0845926720146366,-0.3481703417019646,-0.03774842378456089,-0.5461795159391425,-0.650600808188853,0.7720291507358223,-0.7671151574194028,0.49635559375055394,0.7409332958669781,0.30576986678791807,0.6644849003950379,0.6658345824854552,-0.9536828940236122,-0.22768266308215912,-0.8375045173073938,0.687890691781317,0.4551108987111405,-0.3538467427978156,-0.2796312079252128,0.6518439929339745,0.21298362696642492,-0.09129089444417327,0.15376102620801957],[0.7621849518479453,-0.34158810191970757,0.8910198880084277,0.5451801749950675,-0.844198670042462,0.6821839822537124,0.9044223347627316,-0.4659835390651943,-0.9366698865566998,-0.3276512377844134,-0.38161943741030147,-0.8458516499242634,0.11520739098719224,-0.006723431725293771,0.8057866308110788,-0.06257583202972183,-0.3182309198965352,-0.3974541597067578,-0.23226941364921316,-0.8575117016666813,-0.7291979018467023,-0.013974831779250962,-0.2631058666844921,-0.6727213771053662,-0.4396032839507651,0.2723612305848748,-0.7770869788375228,-0.31373669811016835,-0.3801732025702682,0.18485559444639765,0.8504839429074469,0.3123500017058132,-0.020680376802374667,0.8889031814422421,0.189761896470662,-0.18890451047530377,0.9540953687550187,-0.3782461114611606,-0.038396404474427825,-0.8229458013888955,0.42846294811006214,0.7907992054490678,-0.7638737430443654,-0.3533988802150141,0.5403553338866613,-0.8870466709030795,0.08943134562657962,-0.30335358141458846,-0.9305541862478082,-0.3505785438165545,0.007640804374516641,-0.41938171391764056,-0.9911916744489373,0.5815190087232636,-0.8150027125300494,0.1437533643480542,0.1433406095739227,-0.033839587510180014,0.03923378601827032,0.6159983132667892,-0.8950740632625425,0.9282031557232151,0.42922146368683745,0.3657779534625134,-0.49564172477387247,-0.28905284690269006,0.8799135491120058,0.39183523648053065,-0.5121878413841552,-0.13853004381264844,0.4302203423770967,0.012466751785698005,-0.7550701705615626,-0.8761437972004185,0.6695300985028427,0.26684223888928704,0.7914105829259159,-0.5677381900626028,-0.8485007868273264,0.1782442805149187,-0.16587688081131446,0.10140930203025222,0.8738260361407422,-0.15744542238975212,-0.14352037606292667,-0.1256555527677934,-0.2110737797917901,0.7283942309915705,0.7674449346830414,0.5852389241868434,0.5626029677876367,-0.7078356374408781,-0.33078295662411605,0.44000238982159834,-0.9875579062541262,-0.785481778252604,0.9635357574726435,-0.11864410253378521,-0.8516636849615788,0.8297959641571717,-0.12077295011634126,0.8038641180357291,-0.9012967098478297,0.8195118928669403,0.11263881081339333,0.4645013492400101,0.22371832443199358,0.46923556537490274,-0.3748058223448969,-0.07638916914170668,0.2814804336272205,0.5283723041600457,0.3171805881405212,0.5756935202827731,0.6437436820089757,-0.2730304534953598,0.5733848270594528,-0.24958587773969176,0.5843740437619123,-0.7653032049582427,0.5272941810263472,0.6127762972462549,-0.2861971051426324,0.044902816930433076,0.22105366239553836,-0.05282440708429137,0.18974506598741092,-0.7682273417073398],[-0.15450243118222406,0.026259367195282213,-0.5708790183701353,0.7014895495782723,0.7058039209249589,-0.7219133078834683,-0.06912718814698104,-0.658760667708977,0.3617701407246199,-0.6198087434400938,0.042608286778428095,0.39974451712859027,0.825441569056899,0.08571095809195706,0.7170354654931952,0.3682432157147204,-0.2708887665395352,-0.2481461592912293,0.49955475574206565,-0.8158045333182362,0.9328792980308562,0.6613400470145478,-0.7521874341541737,-0.9599888790329487,-0.20666658955189687,0.7180239516197027,-0.28199293695707794,0.4332600156586004,0.7623117091195559,-0.35052179753143964,-0.11011200832233436,-0.48098960456542006,0.22089759987809687,-0.5897078712708113,-0.18838267109305962,0.39782974267785853,0.15881782896497665,-0.3976520489609512,-0.7446539458947958,-0.4328622472189676,0.20437501563020977,0.9623723417184991,0.12163065242326088,0.10994171600111713,-0.2657078835243505,0.15750176438706553,0.6944136779880643,-0.4037151331113056,0.2975373739768945,0.38082512744656816,-0.9592597301902184,0.7679708821401472,0.13505422156282343,0.8535987420733995,-0.4022876764278531,-0.2529027476998875,0.4647483009535063,-0.032834620155429484,0.3505052145845715,-0.22879202137182864,0.2752781932635493,-0.259214014423117,0.5745602142016737,-0.19233275929293603,-0.3866424090315954,0.15697299715992186,-0.08505947930972546,-0.41406210321647485,-0.8242718797315085,0.9549891122277776,0.5648539402100607,-0.25219907073234804,0.6224637854265578,0.642081083922375,0.29226844843040123,0.7184073149192773,0.7421015802568727,-0.22716584066139411,-0.9427374049367514,-0.8528436502149712,0.9912414358789268,0.027058704989567417,0.6295530023175036,0.9094919334512928,0.12740628858502445,0.7780157399350442,0.4418675409104953,0.8438250339650084,0.7449365964542887,-0.5099768509337825,-0.721425352344732,0.8621687770747282,-0.1474607877181331,0.315924446142124,0.008077923531901288,-0.3711837595124523,-0.6610801275076152,-0.5422233925023079,-0.6978613814948189,0.8777746972007652,-0.321607708801964,0.3644144611101523,-0.819333330434278,0.8937600365745992,0.662152574891361,-0.7551063951125361,0.4194136841360194,0.12186149268577484,0.8716384970164786,-0.906061071848157,-0.36228306385172226,0.40232847523959414,-0.9602332340704125,0.4952125633538911,-0.3561697228673055,-0.2766080633071768,-0.34106293817934263,0.6533860819261585,-0.13465907310789627,-0.11077957163437713,0.08360042202504214,-0.5642672063369116,-0.391274228111401,-0.2786264061235899,0.7713203309316228,-0.3554706754481569,0.14216688551707124,-0.6586523242429183],[-0.9175649270565134,0.6797769373292528,-0.8384686027322257,-0.437346089942209,-0.5737298929882675,-0.10833882102172376,-0.6600068963990919,0.13545484184455647,-0.31454827130508756,-0.7646439440643094,0.4122681593064974,-0.18111401591155296,0.5894925812040448,-0.34349585354633483,-0.6000312154126393,0.37441105473770175,0.16839838895527626,0.5217256477530636,-0.7976721984588138,-0.9782088157647979,-0.08949078652789844,0.8221386964230732,0.1710646230111914,-0.2744476497155528,0.1809497755700189,-0.12364417700265573,0.28199059061090015,-0.16372495959767663,-0.3077510376144623,-0.5383865753877104,0.6799983275401131,0.5321467295329549,-0.4630984443412536,0.5376570862349608,0.8592797346223473,0.9595994539308967,-0.8165132996338853,0.27483923595630566,-0.5292621775846338,-0.9362255118130478,-0.35337343190504455,-0.4888953906241982,-0.981528503871131,0.6674782245878905,0.8047857733398693,0.5891315872009626,-0.13617199381978562,0.11837009608214188,0.24964773493114212,-0.31717055318483167,-0.7399950233913732,-0.24223230139045304,0.5478671859963837,-0.9755025748276696,-0.5629992606774135,0.5681645837198519,-0.15694556688156558,0.8287177768200698,0.6773694374645034,0.8413745975897475,-0.49432122918311094,0.9225886735331765,0.7353640576376104,0.2724396091955912,-0.3039915825140085,0.4580535078721919,-0.8600993283343925,-0.2284422427944932,0.4141427931926449,-0.8315048792225879,0.7860515751475643,-0.00606952774596925,-0.24816418104407978,-0.23571002593431656,-0.5731656036408945,-0.2803306473332272,0.1240601291561485,-0.8831422654537318,-0.2454464719577456,0.9967037606540776,0.6182735712684742,-0.23102132709176315,0.35825920159306746,-0.8950334164784293,-0.1108015017601578,0.10528086291429162,0.31280787720968695,-0.9139334722716299,-0.553346490350858,0.7022044470578468,-0.9681232228217955,0.842689564598722,-0.3426924385890824,-0.30797626877206286,-0.26133791894653324,-0.9443452348643797,0.17927093746308653,0.20477176815741904,-0.2915634304166961,-0.19914778498864427,-0.08448450917834593,-0.9105334050313711,0.4598521632157144,0.5051656821991575,0.7799636364245446,-0.7750250699774859,-0.9867348683293469,-0.1587594832940935,0.7954195885070745,0.6661060706218542,0.26555313303477046,0.7512620879213441,0.40514253271765055,-0.13288325345124896,-0.38374243324525725,-0.2726665762984948,-0.5763129836280361,0.4652299440301779,0.9987352959617506,-0.3127307708983347,0.33565140035367946,0.02539551100389925,0.3343454631878018,0.8490554738316489,-0.49716042891981926,0.7293408975657631,-0.5776875810402511,0.977247258893303],[0.49646398643111844,-0.32003356222968415,-0.23951088467306114,-0.9587726117152098,-0.6027821686238921,-0.8801609941001307,-0.3172511058705143,0.5088457102657116,-0.2542295966390018,0.8363832136179985,-0.33043983410057765,-0.8651400357704344,0.9303664452206633,-0.6100750344473269,-0.8849211258140577,-0.14258019353983986,0.5534748191620888,-0.4421985335577334,0.43467216763150684,0.5103719696307052,-0.9642032511608303,0.06962401902343585,-0.34397080585390194,-0.9560602022754807,0.2881176346206873,-0.02105263230377208,0.33444939868235846,-0.34009825814115846,0.6432669581207753,-0.025242810233300883,-0.32809806561654353,0.26471699322468645,0.802818552708787,-0.6478163206901928,0.03950698566196609,0.5668941443632693,0.020685388839797092,0.9153615823037322,0.31715175424720066,-0.6578105776641388,-0.4834347355272337,-0.10795089976253358,-0.8064815616624532,-0.782331838071884,-0.12544884075416185,-0.7606872519966021,-0.9089528369083792,0.6957489960219223,-0.308633198175825,0.3717036683929744,-0.18440780087118958,-0.6648211655485832,-0.9534205724921616,0.6648397390093117,-0.5922472729636903,-0.8433125120120724,0.15918367018220625,0.6179316783903634,0.6706146138562499,0.5304324265304299,-0.4125596610731006,0.7804621264308711,0.8758731715346433,-0.4160164955346337,-0.32222688582294845,0.3740922390588448,-0.2943666843301549,0.6994040424109604,0.8864136809802705,-0.781226824093145,0.18740927665093565,0.16278913539928608,-0.04957926781157296,-0.5104368144117788,-0.20020982499854378,0.22102159703996493,0.9592630871219239,0.3773600671490178,0.8458811405636131,0.8022937129467445,-0.5267383545595825,-0.8627729902997947,-0.1928035520784035,-0.06292915232423768,0.8746659749549952,0.2979269606541055,-0.5557245155456823,0.7828546713886779,0.2260676026533992,0.8537453614295467,0.6084679926650582,0.23353618127776032,-0.8933841310082102,0.2537992449838882,-0.5925465580119016,0.8572341146737514,-0.7683716376954419,-0.11703169243531253,-0.840450174360936,0.3626532061112302,0.2878485013468213,0.6486029268353009,0.9955524287185433,-0.32610190458415866,0.8169348852136391,-0.393459331766838,0.5063038822138299,0.7405823056130747,0.902622682554842,-0.8367239892089406,0.2388793174066408,0.5821352610021093,-0.7981690636178937,0.10283025959169878,0.34462433390214686,-0.15153949178274395,-0.8075290097458634,-0.9159456500973167,-0.8851394384860178,-0.2952453212167505,-0.4287993632184608,-0.2798787811603405,-0.9141115846010441,-0.04322453155601291,0.7289079853984699,-0.5038450726093573,-0.4494508162940991,-0.7840832747990545],[-0.6533885189263406,0.7713246515751107,-0.0773666566247786,-0.5769513523987038,-0.9155101078281875,0.41443599199838443,0.8329847653069025,0.8973182861536637,0.9311146581699488,0.758469556342185,-0.12256565088847582,0.45425419089968777,-0.5596349367724489,-0.9604197671566292,-0.6168801670169968,0.24740473524449058,0.8013058381093381,0.741792358257785,-0.17510191914193074,0.05460672229057373,0.6849666170585795,0.2696590310283882,-0.19804905023651953,-0.3527377629820183,0.4592682260208423,0.24342953341316287,-0.005539571242144881,-0.12177906926371929,0.5552412943864558,0.18445184911222823,-0.0017847574359861618,-0.05935941613633089,0.16423215218994702,-0.7147479561383108,-0.19423321760527568,0.8013481248155574,0.5768500048714964,0.553919294508654,0.06283820349190528,0.720358746916967,0.7679731160877936,0.6481928644339314,0.05784624057042276,-0.8284370299458197,-0.02796603834728062,-0.24421762569153893,0.11622347143757272,0.049040176074738984,-0.8777027064863954,0.07474064868023556,0.226873900028707,-0.19608439273155343,-0.25658687505045297,0.7075299950041454,-0.897806517152028,0.30496297828210484,-0.986154873068422,-0.5885242052326314,0.21806447070780965,-0.5249353465186339,0.1798589677880429,-0.49947859733144195,-0.4442802516670805,-0.16994013165953525,-0.35364160756849383,-0.053055109135236034,-0.14378350406254015,0.3075417763918842,-0.8187411148460471,-0.637516828212088,-0.5459845035381061,0.05251206713833989,-0.15822295182944446,-0.45572241332599717,0.35767138364282225,-0.31277185717162315,0.040300964464500044,-0.35872781202897697,-0.6883623740924412,0.7391254114231067,0.03858935603089364,-0.9223910984404129,0.7328265466000579,0.5105397901329529,0.20434678228087888,-0.28569245327132764,-0.40452061826845487,0.3681349086465078,-0.3975699709417806,0.5300650911894347,-0.7247172165900642,-0.35743815931215295,0.3808233158121248,0.8209183323853835,-0.8824493078036282,0.530535018016479,-0.33155951516380977,-0.6354389853722302,-0.4076680681057536,0.2782563631397208,0.9734881118323782,0.10440249960637571,0.4400820225234674,0.7186300595844735,0.8338359678877043,-0.9173778930400243,0.41285975737483005,-0.8367808659685281,0.651099312510766,-0.030872646954390515,-0.7845142587967291,0.4711937567097433,0.9249726102017588,0.5158070402112731,0.31239976325324736,0.990456487278462,0.3827504904699506,-0.8461987100696802,-0.48295357684777684,0.3891033831145365,-0.29954250689345185,0.16352784310848678,0.8255284176425643,-0.4513813895262566,-0.9290409921425087,-0.22792525775931072,-0.7883967302493313,0.7236396422615181],[0.22684750942780862,-0.40553522884029825,0.9879525149424349,-0.9918673751800804,0.010583518211042087,-0.9895156612347398,0.593270134170885,0.4823189890996402,-0.22141692983766825,0.3782495097190268,0.049855073576190456,0.5004930404097752,-0.026489679780322906,0.44122934801887626,-0.6033997627587016,0.6716230803213539,-0.7171960444868906,-0.053255430496381706,0.2794220436778967,-0.5395574867530053,0.333562422171763,0.43000582544411126,-0.9031824899255843,0.4097542903487543,-0.8040929725194794,0.8924170428481562,0.635673815808163,0.37106193238876006,0.8608142286980387,-0.0260986704627042,-0.19202733978440412,0.8064942331706044,0.8835886579826262,0.20733178841895716,0.40111681146404443,0.025883118207804312,0.7188236527348564,-0.5059107836124523,0.8327879995504843,0.7889271242216629,0.9504573268779746,0.8873586475674067,0.7232913567301256,0.9283775946432433,0.024398723030434333,-0.7553717097992356,0.43310598575339965,-0.8100236203224567,0.4426872949426941,0.18535476108529902,0.8432201789654865,0.9266740184190336,-0.46735945961522907,-0.6967824506596436,0.36322302800686357,0.2307446200595238,0.2050115259292684,-0.7923247542866716,-0.7971971990847062,0.5193199525582659,-0.8106461132967873,-0.034611789669407145,-0.372496794911521,0.1706230026511215,-0.7254751857142439,-0.7284001450907325,0.14874448153714148,0.8801627767996338,-0.9688738879308043,0.720418974189978,-0.764492331159278,0.2649837471296914,-0.6652906936633425,-0.44895725165437916,0.9574815247384496,0.3028557549913091,-0.8065800028383365,-0.4144947631737592,0.18698186229093317,-0.6901886512301414,0.560281626880037,-0.5132341698097691,-0.3755419942632332,0.8679586935071364,-0.6620927939961376,0.7842419447684716,-0.25084339009942136,-0.29216173187712347,-0.6857697542050678,0.9834894083906227,0.042419985592107246,0.38727039948139863,-0.7085380389374158,-0.5666230585043683,0.595298497024285,0.14198360722596304,0.26281070685152086,-0.23456923434070553,-0.13767202363387998,0.8900160775135335,-0.6792684285856554,0.01055916560239245,0.5377343711573563,0.010817711169253563,-0.07258791940941789,0.3131230769325928,-0.07217105442241323,-0.9828284113693666,-0.6962162683924449,0.4782127383179824,0.8418971151966828,0.210434865304578,-0.6628734226905881,-0.37864089174547333,0.6692802170457015,0.2921867959826976,-0.03973196991612937,-0.9357407468279164,0.8828057070942892,0.1736348709080766,0.21011209128001518,0.18186989017289568,0.741812902796704,0.08308095027490436,-0.11448618300547686,0.5034044343813426,0.6342132986563387,-0.6978089288592986],[-0.5103196575442075,-0.7860320961881913,-0.029567873128698796,-0.9069956720779686,-0.48173351071369686,0.33816525617211424,0.7454803497162654,-0.3515517347133006,-0.9361749847864611,0.6126915414631919,0.47938119909658994,0.8065816350821429,0.4594640440112565,0.8929824081595736,0.0906471638918358,-0.408398819684316,0.7821071485512285,-0.6250437494772036,-0.023333379178270608,-0.32978224083349517,0.1927897188856269,0.05783612468686394,-0.4602688896716458,-0.8934658022470137,-0.521287092992401,-0.06682341584082252,0.7419153645280727,0.556492193362708,-0.7297837181457494,-0.6714611503969379,0.31997767131177435,0.06856060982070167,-0.45504274410393997,0.7181728099631126,-0.7200005669312088,-0.7754540699260626,-0.8936848166002083,-0.6687261506396953,0.6549494156274709,0.21850046727152073,-0.31066392350934935,-0.47927033768479443,-0.7679839067501684,-0.40397236927133484,0.058477601516861544,-0.8935986099223538,0.9384471056908366,-0.005570997685730106,0.2104790486874104,-0.4844020267231799,0.02421434977074899,0.6577477667855831,-0.06513163400246258,-0.2165291832633871,-0.7993066214790732,0.59292285713417,0.33103334162869036,-0.5383466829773931,0.9742997717027349,-0.4805811588935778,-0.7070082171955283,-0.2599944535026606,0.9964419647115754,-0.2931034608912433,-0.9806031439719116,0.5923838049086387,-0.6416135090717576,-0.8862338284845839,0.7057216102456927,0.5321326412029115,-0.025784638728964637,-0.507331960252122,-0.9319152133119739,-0.13170567842870273,-0.49842330102959354,-0.6394681919407308,0.16245555399340672,0.5871451960754293,-0.5855866867074724,-0.8778967991911375,-0.3703271353608857,-0.5501708028163756,-0.06354495993251907,0.7017561417114972,0.4952378435310152,-0.728919204316683,0.876398904236944,-0.813437754760391,0.3301070458694846,-0.3724551368994442,-0.4520626699626984,0.9184939599383921,0.161281860518117,0.4101454813872265,0.8554164894344214,0.1902760875935745,-0.08578205096414626,-0.6804011410894657,0.6059948359491942,0.6260660191591723,0.6337971208399469,-0.10764039752218046,0.018913300195047444,0.15309939141906748,-0.12151566007687231,-0.8014931729914552,0.8250459437318898,0.4528763974233545,-0.8730456231391623,-0.4968252388079706,-0.11248585423815793,-0.5231811879406023,0.0021905422530537066,0.544554823063776,-0.4619491089441734,0.294209991370026,0.26360088660900294,0.546376408989707,0.3257758150619239,-0.39576288960509,-0.8880531986339064,0.3542907073666268,-0.04999450353821455,0.4669388374474974,0.2207897586043659,-0.4769705781190612,-0.40507994351244614,-0.41704338389305784],[0.46188489972593283,0.4736307062027625,-0.7608649496865381,0.9034522339937858,-0.7945151408692106,0.9298222352995182,0.12434420235441523,0.044502017426244045,0.950999010248549,0.17989585833319577,0.35016864764797306,-0.7282080416387995,-0.1729042755677388,0.8806738217158325,0.8061610444844232,0.17374527613312463,-0.9146331587091132,-0.5856607762639956,0.6736252101731499,0.9461012130264108,0.974190432181159,0.3300241675083857,-0.30951689283543926,-0.024777756496073167,-0.9757434952223174,0.576257398396391,0.8316068953514306,0.5385479697721252,0.9700839097735257,0.0033740332947509444,-0.5200352061857485,0.650875194283083,0.8235316344420118,-0.8783633208684654,0.8776900979024047,0.7487669290205168,0.4552637541555198,0.9530078437440848,-0.6336270744238397,-0.1514747780549177,0.6205097558769745,-0.6235054547431034,0.7126202922499916,-0.7467334760126323,-0.8407457030911925,-0.3001557759812874,0.5671273520039346,-0.4205570564055163,0.16666867575864108,-0.4913526490363833,-0.9105108089489904,0.29260133124231524,-0.1139312093821312,0.2258525574054726,0.8521113401057758,0.8208168977071093,0.7884390064679221,-0.40828793656634277,0.9784208111599684,0.7005306325572112,0.9679553205642111,-0.20659678452231933,-0.4418452148307259,-0.9172238927282024,0.1870627749357694,-0.9204947354348287,0.9538811219540273,-0.3502860934373784,-0.4484877738625124,-0.004374881454872082,-0.009960823347435532,-0.8887564987380085,-0.49932499176602096,-0.034206817202643514,0.5100042771620981,-0.9707856835817141,-0.7896964921901275,0.2908815708284047,-0.7884393588007264,-0.5517243078840273,-0.47180977283688197,-0.5898000463058932,-0.30734701482942484,-0.3087257851650711,-0.04521787641995845,0.17798678998117312,0.3128214524657449,-0.34825386322801766,0.18713770487646508,-0.7457216046019308,-0.7518611767035006,0.20488969000505275,-0.8036671608133763,-0.21293094041788851,-0.34547276949000905,0.43898452752044825,0.35271484295160027,-0.23421944019915708,-0.5291195033152856,0.34176062605626756,-0.6634023814152297,0.8131319067892107,0.2145412792138277,-0.03019379149179846,-0.14585005305639198,0.9528534193569338,-0.6185255903119771,0.9842041030978579,0.11656290644053557,-0.4575228183595761,-0.9393339638775355,0.7204107331137037,-0.4079264251160981,0.14349628019101557,-0.9864635838425153,0.4381161145352066,0.6189163835634579,0.08124875770213968,0.9152375911084927,-0.8862193954965694,0.7793457735942071,0.5380421071863575,-0.3086577659596639,-0.339397243989517,0.964910976070128,-0.008106989805634512,-0.5601969386939407,-0.6415478183305461],[-0.6922685706112466,0.04626488938276063,-0.4089541647970396,-0.40091383187294305,0.20826378244181099,0.6112628208759241,0.5678602719933719,0.488965682700254,0.7199715767708903,0.30059570519257406,0.5207480722676601,-0.8963114231749438,-0.5775048788991111,-0.5566289391662664,0.832995865769353,0.41988358635418965,-0.7516648164875019,-0.17337065588292067,-0.6905307009764567,0.8771397453546039,-0.6805584437908587,0.8927336138444351,-0.9513094754748086,-0.11956345588176243,-0.9488264471084302,0.25163670447144204,0.19615346159352853,0.25012507398119954,-0.889587589312363,-0.6632686804525285,0.8402277964322935,0.3716302952066459,-0.3503932736513877,0.9065415940647861,0.5479238937180542,-0.5617265606321968,-0.005718110595456238,-0.23172208197063204,-0.6579277004519826,0.28251360143865467,-0.03537775148067368,-0.8170638603777709,-0.7927104322204941,0.4694184530231511,-0.06216624510424662,-0.16258843319099636,0.06254401359129691,0.3213933204029793,0.35254253075285646,-0.004747514237872785,0.2493265398587181,-0.861957325459771,0.8604153100199965,0.9085142722005171,-0.5670704422442796,-0.46528779778923246,0.08254670495655914,-0.6750552882795322,0.5986181344815038,-0.7327299646645975,0.314797944277764,0.5517352343364981,-0.868691565372278,0.2663031707330621,0.32498404942951264,0.6667942046033333,-0.4072138749733547,-0.07578518152493885,-0.6008035999693475,-0.9266859775305258,-0.48924434640899106,0.5560449503189684,0.36030248582455693,0.44078083462105644,0.6918222447577516,0.21848678129503485,-0.5655201776832102,-0.7906053749340987,-0.438860317215529,-0.8981126993145452,0.7671178960336857,-0.7844808207151783,0.09388624656549638,-0.852861280293185,0.5130053455773149,0.7254932072383742,0.7209972750841254,-0.7704186160418396,0.5513594222497478,0.7038333433712007,-0.5771815380026033,-0.044242242002163756,-0.03693027137582083,0.16579212636575802,-0.4182692430508288,-0.9937284295323763,-0.18841190882952308,-0.9268402024649633,0.21361636175655274,-0.5823214878446472,-0.9693201353775738,-0.3472737324491453,-0.9125730140904267,0.7966379497822991,-0.7529277937408461,0.4653235095027126,0.34505368026062344,-0.29030864178591376,0.3098612589106047,0.25982746131504175,0.10541237479506993,0.9218568445769524,-0.04317903242052745,-0.04375577915912032,0.8192360184750691,0.6580768288153225,0.5055026973830774,0.4677273475750261,0.6403159300091432,-0.3346459278772427,0.3096928926963054,0.9772095825577947,-0.17077203040671884,0.27464323126641776,0.7490914081062177,-0.4983171849066479,0.3520970817365563,0.2517538788949625],[0.9005128073007,0.6889256265308537,-0.07279601901159394,-0.24465041031650303,0.08891883248155352,-0.8372883804942632,-0.017282513450782577,0.9092675721940617,0.7897940694709118,0.08383240905124456,-0.5615374225189855,0.19983700959921524,0.6226657463416068,0.5465468352879914,0.18688717268133548,-0.793127707772447,-0.7835231813191359,0.6504056030506287,0.5061860161338076,-0.22503317825299085,-0.15653067076998894,-0.06186212523533774,-0.3642694328528351,0.9147689010580025,-0.4314973535498301,-0.15807584850743428,-0.033857739843265566,0.8554713706788957,0.27516799147414917,0.41320681046436025,-0.6729823965543442,-0.5892883151164159,-0.9184133790226148,0.8339376043193969,-0.917808314515582,-0.01866397480197657,-0.31587144682783874,-0.24242680244127301,0.7596180050845307,0.8380986252070839,-0.052003276381461294,-0.6396938003020076,-0.5699416694497623,-0.5202266830178894,0.5242304294258435,0.6716852593580498,0.1532350829695237,0.6920124580756726,0.8691665272275029,-0.42702543873694276,-0.8241179729048187,0.11089964387676066,0.14646006566818892,0.08521094024398179,0.040031102750447634,0.6890875918454409,0.8956948961630276,0.7273995797490387,0.750588848888821,-0.5130636660766359,0.2523380499781962,-0.28590851512711435,0.3291965285630498,0.7947833733607514,0.1003124410862668,0.35608820985425726,-0.5132264801730257,-0.3263929431473658,-0.006866194855551733,-0.041074913366720534,-0.6811170154827821,0.8939100802114481,0.2334678837529358,0.11162135168092258,-0.8240241956165635,0.17437483241652796,0.3483896668176669,0.36426963323032346,0.9452259491854944,-0.2708158390285882,0.13024668862452815,0.8902512155969311,0.25598448664830187,0.24256987705107935,0.7122142062337966,-0.05997604460657113,0.4337980942710007,0.809992351080691,-0.17412299512545637,-0.9070531074015347,0.5983690458981958,0.055990517460107636,-0.8009447280513697,0.6689532510358105,-0.8299444083863556,-0.7361314579531664,0.13504139081855993,0.7699521351711707,0.9087647270302628,0.23050345049168053,0.37523576042726425,0.21991412493175,0.5935392154810466,0.2769875420901058,0.4544143254436208,0.0862904957828321,-0.4421397538162517,-0.6119854470945816,0.5387608280712626,0.47075659885676036,-0.7435590397619878,0.8028799242684466,-0.7431249851690791,0.5976154900683097,-0.18460046802430474,0.3237624292413419,0.6128704690960047,0.06872127929975713,0.4714639139187864,0.5473198766039737,0.9658340233952463,-0.608398899723368,-0.7738545338588896,0.37287056571051025,0.19843320006645282,0.16454688071006762,-0.7283582252686736,0.3261251733232027],[-0.7399440421612753,0.9683718801897849,0.12472446756343425,0.19007323339268511,-0.8367600410431564,-0.7924734147923025,-0.000015629883635348563,0.6854991194017259,0.14904695313725647,0.27822778298745243,0.9358827539402674,0.5166164845855046,0.36422052556601603,0.763826263586501,-0.4711835264036264,0.6654645123960101,-0.06328132610502335,-0.7848303976883084,-0.35704821522539065,0.24049087526077972,0.5507371527881109,0.07308979512078562,-0.15873762541803726,-0.6742799773192432,0.6807352502263759,-0.6519883106493811,0.9260304096447851,0.8216970443563252,-0.05146231614041108,-0.8621672374421001,-0.25233311253180446,0.40561413577238925,-0.6282034480834104,-0.5405495998451642,0.899140810882324,-0.6829994010792637,-0.03539070395233779,-0.0015549248562765072,-0.6749445971283166,-0.8498362848227194,-0.8688282571607173,-0.9513583129326952,-0.2711271534484512,0.1743824008165782,-0.9391432285051562,0.02626730759580065,0.6637380871816481,-0.35073852101482705,-0.23235681124702268,0.30222549285978095,0.4163516626215702,-0.3790430160011531,-0.29453834846057614,-0.01709284542821443,-0.3875092473845627,-0.1678446892839327,0.19529932375569725,0.4668276996634724,0.7573096191664468,0.7999660347555242,-0.19858136762131195,-0.01531028842276605,-0.4915091157577671,-0.8537857107174243,-0.16615610496943445,0.14340218911470393,-0.05156791068247912,0.8531782683339526,0.47437361713229054,-0.034263571659311154,0.788206610619707,-0.5326026336503156,0.577739975194457,-0.8086841307895218,-0.4430533435515249,-0.5504447457054806,-0.48848360802956936,-0.5499345647045524,0.6290418285886661,0.3848372328716869,0.23110484734500591,0.6314067803594834,-0.6396791009615255,-0.5265822984816024,-0.6793779772265158,-0.8885907867790337,-0.9653122097070987,0.3791210006056942,0.6815021967504951,0.7171618309502197,0.7032849406449535,0.966001505422013,0.2937561312903614,-0.5919896568897927,0.00012041781100613491,0.28275109831598266,0.47772469472245405,0.4429155901538726,-0.01165187816760671,0.39050327968704357,-0.18852218181989366,-0.8735917154233843,-0.1501223787478656,-0.19964930918937007,-0.3116561596887397,0.8120267033596065,0.38796426194069156,0.12850994446314878,-0.229869303030116,0.40783888737790486,-0.43841825306949556,0.15815935276283133,-0.365297672444326,0.22066792216275966,0.08184701900844393,-0.1792155510908664,-0.2376598092862876,-0.36939422024944557,-0.3880771403763421,0.5559980513578835,0.6343189108032083,-0.21818102706670794,0.5680493093912578,-0.37020969741633536,0.6236291751064535,0.6658349730631743,-0.42574111799925385,0.6741822463830105],[0.1842947133108348,-0.9595148209139639,0.365757998461155,-0.13930254631591188,-0.2375675128514727,-0.9703419092405872,-0.4273230628387221,-0.9856347336310374,0.8921925375788642,0.4727848315439287,-0.6254962968198421,0.15661121101615416,0.7747858397491663,0.45680422836193957,-0.7826573229197158,-0.9467295040643009,-0.5774347380833675,-0.037923026938161186,0.2765874698119659,-0.13139683806937574,0.5256779333589146,0.24415879245417305,-0.2922508654943057,0.022986001474352147,0.8399446493915681,0.04303429735744668,-0.7290186167853108,0.052696974552256304,0.24779802155820363,-0.5547198932913089,0.0008516677865459954,-0.15588001449447209,-0.9335336940477217,-0.18597410921992408,0.7388324124105012,-0.0063391238797469995,-0.4765162741401259,0.7241351311156392,-0.02156904102412005,-0.6197315294930381,0.8989295349515962,-0.9423926427136822,0.36072095706120955,-0.8438060930428315,-0.24987080894665947,-0.8825155524989183,0.8404682917526114,0.5440826725434782,-0.3410464577301786,0.5861075771746997,0.6029802136590585,0.8343226731556244,-0.3864380331497106,-0.23956518891065048,-0.8524238492862137,0.5972890255721568,0.0986505320208102,-0.6624571272119333,-0.08640460353882329,-0.15525765354503696,0.46167484277999815,-0.2848750234627242,-0.5427196378831285,0.19516252910483178,-0.7867372274157849,-0.8126488436963277,-0.18026795577381183,0.4445287659238448,-0.5536408637107013,0.7407527855417304,-0.12253985588049643,-0.06564596938233835,0.5230547834471921,0.6914475987818545,-0.88455198266771,-0.06605204771889017,-0.00841044669209845,0.6043900886845734,0.2749259625572944,0.4334148998257916,-0.5761594455306089,-0.8851874922105698,0.20693841814745007,0.4415359909574228,0.8446657200352918,-0.6164187439595215,-0.40426812946795154,0.573639083846476,-0.41519241038151566,0.9947620601302241,-0.5120929367939975,-0.4813750951805611,0.9367231242041085,-0.7749405714780022,-0.17701661354014941,0.5404195047066178,-0.322158341557389,0.8108445295601654,-0.3266656630229021,0.25396587085466926,-0.41565090753400247,-0.2622214070071749,0.21483649300258323,0.20194634495883257,0.1718369939786153,-0.6150299931138385,0.15657047992364959,0.2709086014702189,0.7476801658786307,0.9099274961277848,0.8075367925564834,-0.546130857205875,-0.2731398341254536,-0.5779880722187101,0.12094709692874339,-0.40995408317556237,0.5014562651720706,-0.5075324283668667,-0.4259248465618617,0.9857732135553223,0.1933570354346683,-0.004017567326342508,-0.7983298319610639,0.704905208747503,-0.7056191207224951,-0.11355696722386588,-0.635007267466615,0.41165493009554854],[-0.3182735314357872,-0.9846821957396701,0.23807544335501826,0.17422319296773317,-0.9671630646087744,0.33714513978217364,-0.6354362785239818,0.00744267512483912,-0.077444773476318,0.15247512724328352,0.3531246861757055,-0.16186587006011718,0.7981717341252955,0.9989340550514445,0.32561008821418236,-0.9248756470057402,0.45668580597392033,-0.5570546282864666,-0.20817758924077867,0.5107571505051693,0.42556049140254654,-0.7839077084788171,-0.7276061633103013,-0.40566886458671303,0.7196184870063842,0.7056043762434089,-0.5290651009786792,0.9341004151695211,-0.6725907602198299,0.8521314150176268,0.12983973735023413,-0.03627539148118963,0.220116297194341,0.603730956503543,-0.45141971994948266,-0.004713546783304538,-0.7003390499826927,0.9618617614080769,0.7121272294339401,0.16412216103258118,0.9838468720082433,-0.4958281140727062,-0.6404108046869572,-0.7839907513283042,0.7104025113577275,0.32104373292930016,-0.5201577401414917,-0.6287768572848308,0.9675321372708536,-0.02215323535943453,0.34405091803020155,0.7139730548836845,-0.46242096953410927,-0.7555788747253719,0.7466072195072225,0.6174093663924539,0.55499526077457,-0.6709222476258709,-0.5328181462959154,-0.807340135855959,0.991623809642285,-0.8410292952448474,-0.45427085267572836,0.44516632842343534,-0.02826096243376962,-0.44780491274788464,-0.8454961474101693,-0.1583699569453999,0.2957040942066436,0.9587686554136702,0.06264015230977221,0.22328710344544034,-0.30010311584154276,-0.02911669641947545,-0.9899160520412461,-0.5368842392214572,-0.30803766603211236,0.11610410831449995,0.7846708764890837,0.3070330389788525,0.2038857575019546,-0.3576957142108868,-0.6688492851258017,0.025045845781563277,-0.21696228786401395,-0.4874165891041721,-0.7049615505038512,0.6008869794899464,-0.712471293373619,-0.4902675848476842,-0.821043633285275,-0.6507149984727297,0.6689174023988513,-0.21251139240355485,0.9529493531810402,-0.5810130459968605,0.42569076469500094,-0.46815864385048694,-0.9892096640254627,-0.655152133288279,0.7746769984255311,-0.9343269118028631,0.04258868668340867,0.5916600881702326,-0.10950082614800134,0.43627263438080127,-0.14688771516081373,-0.18834334889966856,-0.7368878913146327,0.8034719532078789,0.12306442881319594,0.2682108145816329,0.9709267186239039,0.5688251469861776,-0.4121946099139929,0.7888612760326486,-0.021054409695221925,-0.41035799419980895,0.1871511033685111,-0.8808601315278421,0.25121264990810654,0.862625678132171,-0.5800329489737438,0.9863629699485572,-0.5525934819411397,0.9063663957983029,0.1775277517666544,0.5950104430472932],[-0.08304079011292735,0.07209303000913822,0.5032120305337993,0.701256483967095,-0.9510664440653392,-0.7739703454179426,0.8699885888749828,-0.9332596146878278,0.5660922883523906,0.03692108226101101,-0.7369798639010479,0.8679390248505513,0.6479702449328872,0.6709042431874392,0.5624892143410538,-0.8704986731286417,-0.40947422651742577,-0.6060272670448537,-0.6576930711339772,0.22192875029027875,0.8557547719253579,-0.5181206920456756,0.04866274269527813,-0.40183950277271996,-0.45834456384723105,0.4940897287890431,-0.3376465982800281,0.9737259600601451,-0.6565564819052083,-0.9978882004137167,-0.633406395617802,0.28184144867064487,0.5049591421504214,-0.5839988395421126,0.29785891095042666,-0.6704273936788194,-0.05413413597980988,0.2839605078295689,-0.6242072962343113,0.2510519809006454,0.42728618754488507,-0.8747107921139429,0.5620140880659775,0.9310829551955573,-0.6835606940616975,0.13959788184658917,-0.05238133017217034,-0.8210730854631654,-0.4124557097354745,0.8561913398721163,-0.7950655693658685,-0.050994024837101234,-0.8878371700902788,-0.5975756007183006,0.25590020549280873,-0.7057369104442749,-0.13476302133250348,-0.6661638302564857,0.17320929531773124,-0.32169701568184855,0.6879201628770456,-0.6764121403958124,0.43882562992589147,-0.6640880735370795,-0.028727148491977366,-0.9798132357096989,-0.18859893286874485,0.8304961610072409,-0.14569915985270948,-0.814606055027649,0.8815127523828644,-0.9996769230228524,-0.733260673533008,0.03677999731461647,-0.7101336686281853,-0.2881303574961977,0.6909565091478411,0.5433617304700471,0.6149897156649311,0.6503489594580856,-0.2801551207674256,-0.5566528517466557,-0.06859899079879644,0.20244243359919845,0.09406012570982375,0.09354176936350565,-0.6924777260903878,0.5610714990983585,0.10118899750084641,0.48498430170864343,0.3835657305422836,0.8799157429456773,-0.8781260716858212,0.9677259935887502,0.4903157453276691,-0.688177733134107,0.3759881681845192,0.3642945585486817,-0.07162799662594381,-0.7051823900194739,-0.6048092696702183,-0.8688115214619581,-0.9750679800577657,-0.4487785202628672,-0.7913624355199385,-0.3358333008268423,-0.44308317307698586,0.9155327262832649,0.9967237584347984,-0.8672246687567643,-0.9051703602145613,0.19636425473728455,0.42932823668960696,0.6279120440887084,-0.6031395333482072,-0.7961248855503598,0.3566480464369523,0.23232893089988307,0.014502685980337628,-0.5312445640429138,0.969748558463052,0.2966427806479737,-0.9796396842790919,0.5951348521412273,0.6847806214287648,-0.3693704013440299,-0.8806568304177331,0.5688652936709634],[-0.31681548645505575,-0.4426329765336332,-0.4552271031937848,0.7257866047741875,-0.16047605428058379,0.49150579043853193,-0.945342271637209,0.010279238178733503,-0.1813410382080617,-0.9972536592554357,-0.3588763005577832,0.7928513120478103,0.5651327027095223,0.8243398866253931,0.06239279953616638,0.9194400926398903,0.8050419563673676,-0.9253178687349807,0.9677076538447056,-0.9779098398405255,-0.7220524090146542,-0.49141663368928684,-0.6055089757647978,0.8554250349656964,-0.5346572654667835,0.23096391374931066,-0.6172398800198197,-0.2540563002670782,0.7392185386694864,-0.4687247532615507,0.43531224253552075,0.7870606539778805,-0.1710009741439772,-0.6721808319627463,-0.567844229451683,0.05516471098797483,0.40542750076769046,-0.09189602055142011,0.9682057112975058,-0.6600817516136661,-0.4077550596984467,0.3174960100334773,0.17240853600601533,0.745427742163752,-0.2622697128271369,1.0000262809078542,-0.7589065694219566,0.8737488462129619,0.4460351891975565,0.6055937798112454,0.3843783875294185,-0.10851310342745371,0.6162345968360967,0.6400155207358726,0.13843717340093317,-0.040843656245561806,-0.5395667985585122,0.5059806116741297,0.8503693069625154,0.5068266214292345,0.19814431362838358,-0.7016660422455184,0.8967228058139841,-0.8448510485306825,0.10439780795586696,0.13753169810852936,-0.11194964953742224,0.17443039517432973,-0.6343934658493581,0.22149232647863557,0.47530046107221485,0.5209243978253174,-0.2753095303814549,0.5728104250796,0.4351015338766293,0.5721552488351046,0.3963305468245544,0.637159999967841,-0.9202584247235861,0.45179423202851793,0.4406488043076715,0.6411528088445363,-0.2677506350260914,0.7047762860013581,0.23659983840374751,-0.16036863994345468,-0.5481898995169084,-0.0601893584935214,0.6598531098959444,0.28128555332586264,-0.5211116690777731,0.38101298198556754,-0.49689655399537497,0.07984841831880175,-0.8875553340074319,0.25246785509255093,-0.9563921509495726,-0.6478138798527281,0.9775371276354231,-0.6429999469012155,0.9249783230285534,0.03977080663244297,0.7249784558378141,-0.45619102822653607,-0.1454656233076061,-0.04381362823642156,0.6070667610021101,-0.8426293782288182,-0.8657301574298248,0.7719976676931127,-0.8764509502260495,0.6968147363688686,-0.11663516639652376,0.8475840726911718,-0.0433456036732652,-0.6074736902896152,0.11479843435151561,0.037537868327109224,0.3850671882334201,-0.2568729727394551,-0.4930108350429338,0.3540104149151116,0.8934781544304169,0.06457844801388843,0.8255373521827272,0.037171274131278575,-0.6827873405858323,-0.21499892914261567],[0.8597893142989862,-0.9573470037980233,0.22460169803064775,0.5060823298850229,0.18012291464549746,0.8375969009913942,-0.8445697143378494,0.011646561133714938,-0.1668059516406881,0.5695788191149441,-0.24712105973010054,-0.549340723716088,-0.9504681648093445,0.6127726495002974,0.1034148264809624,0.598491134357005,0.8318436612068097,0.7301201115427269,0.23922673757538276,0.73797915166666,0.3036248370228929,-0.9332001652708901,-0.07772023033568812,0.9745234556170147,0.41765028218693107,0.19380515789555347,-0.5383964626525816,-0.2557520935989778,0.09180375396508966,0.1690218407036909,0.3832523120372305,0.05566874295189567,-0.9924773178562025,0.7191281167578406,0.5566123616858868,-0.02312830787351058,-0.1896737785476675,0.7438908054123406,-0.5670137770906813,-0.3718224115067129,-0.23852953156924508,0.4748474490056294,-0.4730405140846635,0.4883487589478053,-0.9267296007240703,-0.3563971827736868,-0.351112238833275,0.09453054117081726,-0.9621147367662147,0.7178245461737102,0.5188568973921003,0.43109218308553215,-0.3756727080710088,-0.33838142129704185,0.8697122541436051,-0.9096270918214691,0.04578957021436488,0.1893725501146755,0.20949796197951612,-0.16851963725987268,0.37868197863037484,-0.460674521698414,0.32637046043570933,0.7208431775225976,-0.8461749848307767,-0.5290831188191037,0.8100151479169257,-0.036674132658366304,-0.11698753174733277,-0.8483123886076214,0.9106147587460948,0.5584183298410237,0.26837346364414294,-0.9016409018871632,0.8299723274585047,-0.6191128160267538,0.8564134165549271,-0.6407687138631428,-0.9850888902715155,0.20178118903075232,0.7396782096379696,-0.7923763098350769,0.966885417249326,0.30932679030084786,-0.31355780077041745,-0.51043778498047,-0.11909495324913694,0.5493514426541969,0.5534968288793725,0.6364840019796295,-0.18031951910736738,-0.7657553458084074,-0.09017443495684704,-0.1914342536735754,-0.9881766750101109,0.22822229710318714,-0.004944599250982975,-0.18538401688426523,0.23636902391432174,-0.46748718668833245,0.9564936920181056,-0.35578399180259734,-0.702194333713416,0.019109499694605816,-0.2521736657890365,-0.47210386750985334,-0.2865903185148399,-0.9125757299092676,0.057811115718620625,0.14955404345932286,-0.07707026199068533,0.8653024051379633,-0.8480023035684695,-0.9128883000702884,-0.958981072895281,0.24598072513293096,0.26081943841535604,-0.17985286275910145,-0.1456872515526371,-0.02453885600166236,0.5998937884504878,0.15288277974118472,0.018128953007657895,-0.8842700992886066,-0.5176110837620715,-0.37212445890985435,0.6778564980820675,0.8509152369901611],[-0.7299057678817957,0.6336210974120317,0.7473159401214297,-0.7629651369518261,-0.19359837526194482,0.26217477698411795,0.9378527631857463,0.22683156213442768,0.633342324984814,0.3088669190059458,0.5644869801890445,-0.0868042596822679,-0.8119799034606492,0.8841735952080294,0.7703342016530071,-0.017347946141695294,-0.3916242751736863,-0.07250700935732099,0.2152108262989212,-0.9929869210242691,0.06234577417803658,0.321626992849638,0.6999391883788746,0.532155238075734,-0.21666729596386225,-0.2043298253914613,-0.37305819924438277,0.07043886291253804,-0.49814438699540936,0.9199815670659859,-0.49293761660397956,0.18426037051787697,-0.9971513193299719,-0.8505965975653768,-0.4569848106003376,0.6798786638359832,-0.950276336406993,0.44216916677328855,0.9221072052008819,-0.7805474257852844,-0.005083522665154852,0.7908188160366533,0.06297235539349087,-0.800967301263887,-0.5456054236074376,0.9711855778042159,-0.05169195740072612,0.9963419207531763,-0.8971470752372666,-0.8292462341425622,0.47429921376717926,-0.24722285255775217,-0.9064779488984092,0.014737638530961565,0.15325179614694281,0.7486638727846495,0.08389158148172525,0.8648081442729801,0.40587075735632994,0.34542234132280625,0.20016493630441962,-0.023553360882338167,0.6322824287843708,0.25646372357315,-0.7202486641349006,-0.6712008829695033,-0.9617833189364479,0.9659574310550945,-0.6272722397279566,0.04853429456645547,0.29402649057710945,-0.5585815816284231,-0.6025736101094266,-0.3844544720076432,0.9413200645930799,-0.5378181288126346,0.6686318428208509,-0.4002859019593605,0.0245121993445677,0.951685386125559,-0.5710932518970148,0.4340217805768448,0.3350496524264485,0.7195606938008651,0.8977536778185924,0.5591423484651602,-0.6435674071410052,0.17727599396211688,0.37358897088327475,0.02284291904419094,-0.6528481484121696,-0.48468439848039274,0.9076034954696238,0.1068221952510938,0.7773409767192571,0.07471228606846465,-0.9910828548074407,-0.812629372303184,0.030409349012632633,0.9890455118935806,0.3691909244338806,0.3140817102858672,0.6096870118255834,1.0000839323861228,0.4257317753822003,-0.8798543483956092,-0.7242429472287527,0.7000396000313754,-0.5435987610616709,-0.851730360636303,-0.1952857604104439,-0.5435835555467915,0.46576187585118156,-0.7858972269566751,0.8663917333494793,0.657881921148472,-0.423843774893738,-0.6471446195820528,0.754159550560796,0.4160985769366711,0.024834769024613474,-0.7777088822868331,0.18112344763534707,-0.7976709476408655,0.21413996752543774,-0.5771700811274049,-0.09220177348558749,0.39750493269192455],[0.6381195516043794,-0.21776756177899212,0.10424917698378976,-0.2049700964894861,-0.5738022333196946,0.04414057696623813,-0.055922239983655635,-0.5774937225192006,-0.7234557600949667,-0.36728875373742087,